{"sizes":[25,12,10],"layers":[{"0":{},"1":{},"2":{},"3":{},"4":{},"5":{},"6":{},"7":{},"8":{},"9":{},"10":{},"11":{},"12":{},"13":{},"14":{},"15":{},"16":{},"17":{},"18":{},"19":{},"20":{},"21":{},"22":{},"23":{},"24":{}},{"0":{"bias":0.5210201740264893,"weights":{"0":0.1285400241613388,"1":0.03361226245760918,"2":0.05614612251520157,"3":0.0932505652308464,"4":-0.16190744936466217,"5":-0.10949364304542542,"6":-2.3460214138031006,"7":0.7526831030845642,"8":-0.28460457921028137,"9":0.10574173927307129,"10":-0.010252067819237709,"11":0.13349027931690216,"12":1.4082961082458496,"13":0.10295480489730835,"14":-0.1262553632259369,"15":-0.13883671164512634,"16":0.3694058954715729,"17":0.7329117059707642,"18":-1.4893231391906738,"19":-0.06265678256750107,"20":-0.150560662150383,"21":-0.31389594078063965,"22":0.47989895939826965,"23":-0.25917309522628784,"24":-0.16743336617946625}},"1":{"bias":-0.8978537321090698,"weights":{"0":-0.15660671889781952,"1":-0.31296613812446594,"2":0.3989318013191223,"3":-0.36295756697654724,"4":-0.054283324629068375,"5":-0.1898689568042755,"6":-0.2052706480026245,"7":-0.8033827543258667,"8":1.5693570375442505,"9":-0.05431417375802994,"10":-0.03810017183423042,"11":0.16271404922008514,"12":-1.2513221502304077,"13":-0.21291406452655792,"14":-0.015299209393560886,"15":0.09827157109975815,"16":-1.7054849863052368,"17":-0.7594533562660217,"18":0.5889161825180054,"19":0.11439929902553558,"20":0.013287732377648354,"21":1.4811023473739624,"22":0.9338005185127258,"23":-0.10821158438920975,"24":0.19518382847309113}},"2":{"bias":-0.10427096486091614,"weights":{"0":-0.175601527094841,"1":-0.06143641099333763,"2":1.2750754356384277,"3":-0.024030352011322975,"4":0.14720548689365387,"5":0.06481045484542847,"6":-2.1541459560394287,"7":0.2940956950187683,"8":-2.4582359790802,"9":0.07346096634864807,"10":-0.14962823688983917,"11":-0.11492174118757248,"12":1.284521460533142,"13":-0.035362835973501205,"14":0.024166341871023178,"15":0.008941873908042908,"16":-0.2464079111814499,"17":0.03826451674103737,"18":-0.14328964054584503,"19":-0.07946545630693436,"20":0.15967194736003876,"21":0.8227700591087341,"22":1.2160066366195679,"23":-0.3141923248767853,"24":-0.13215509057044983}},"3":{"bias":0.7343915700912476,"weights":{"0":-0.05329897254705429,"1":0.3786248564720154,"2":1.2718089818954468,"3":0.2538125514984131,"4":-0.07206669449806213,"5":0.0811527669429779,"6":-3.541288137435913,"7":0.3954595625400543,"8":1.68333899974823,"9":0.06241845712065697,"10":0.18076708912849426,"11":-0.8310754299163818,"12":-1.714582085609436,"13":0.5336886048316956,"14":-0.16364632546901703,"15":0.0596955306828022,"16":-0.197196364402771,"17":0.38854143023490906,"18":-0.8319372534751892,"19":0.10476159304380417,"20":-0.0307170283049345,"21":-0.4336795210838318,"22":-0.06296932697296143,"23":0.5504723787307739,"24":0.13783003389835358}},"4":{"bias":-0.08608201891183853,"weights":{"0":-0.05553516373038292,"1":-0.5215846300125122,"2":-1.3460664749145508,"3":-0.6928306221961975,"4":0.19920563697814941,"5":-0.13907490670681,"6":1.2753782272338867,"7":0.5702555775642395,"8":1.9349126815795898,"9":-0.17431220412254333,"10":0.03481646999716759,"11":0.3268405497074127,"12":3.085023880004883,"13":-0.7149266600608826,"14":-0.1696624606847763,"15":-0.15675845742225647,"16":2.4756147861480713,"17":0.5382839441299438,"18":-1.6389583349227905,"19":-0.019663482904434204,"20":-0.14125880599021912,"21":-0.8853368759155273,"22":-0.3872780203819275,"23":-0.7855157256126404,"24":-0.04984302073717117}},"5":{"bias":-0.050547171384096146,"weights":{"0":0.03396434709429741,"1":0.25567734241485596,"2":-0.943659245967865,"3":0.36087626218795776,"4":0.13996797800064087,"5":0.05818909779191017,"6":2.0107717514038086,"7":-0.2803172469139099,"8":0.020372789353132248,"9":-0.15770414471626282,"10":-0.0777992308139801,"11":0.22465504705905914,"12":-2.018132448196411,"13":0.39023226499557495,"14":-0.10541584342718124,"15":-0.1786310225725174,"16":-0.3450239300727844,"17":-0.47071272134780884,"18":1.0021055936813354,"19":0.1586053967475891,"20":-0.10301259905099869,"21":-0.4933558702468872,"22":-1.0247225761413574,"23":0.36990976333618164,"24":0.18944302201271057}},"6":{"bias":-0.2209549993276596,"weights":{"0":0.1897265762090683,"1":0.18386206030845642,"2":-1.1916874647140503,"3":-0.02265339531004429,"4":0.18905887007713318,"5":0.1217329204082489,"6":0.6353989243507385,"7":0.06196058914065361,"8":-1.7737205028533936,"9":0.06165100261569023,"10":0.14269153773784637,"11":0.7299301028251648,"12":1.2838122844696045,"13":0.06135018542408943,"14":0.17714571952819824,"15":0.061891552060842514,"16":0.27727892994880676,"17":0.1244005560874939,"18":0.9849898815155029,"19":-0.0631571114063263,"20":0.12040064483880997,"21":-0.5532373189926147,"22":-0.6550953388214111,"23":-0.1381530463695526,"24":0.03743300214409828}},"7":{"bias":0.8665136098861694,"weights":{"0":0.0564572811126709,"1":0.3196241855621338,"2":-0.3192923963069916,"3":0.2831072211265564,"4":-0.08367379009723663,"5":-0.07147068530321121,"6":-0.7957753539085388,"7":0.7235023975372314,"8":0.8434621691703796,"9":-0.0683915987610817,"10":-0.05600550025701523,"11":-0.12110629677772522,"12":1.2617602348327637,"13":0.37329769134521484,"14":-0.13774092495441437,"15":-0.1430162936449051,"16":-2.4782040119171143,"17":0.5578331351280212,"18":0.2859063446521759,"19":-0.188900426030159,"20":-0.04637441411614418,"21":-1.0511608123779297,"22":-0.6044021248817444,"23":0.25473302602767944,"24":0.008081264793872833}},"8":{"bias":0.7318849563598633,"weights":{"0":0.054880596697330475,"1":1.0204514265060425,"2":-0.2937179207801819,"3":0.9114422798156738,"4":0.07707494497299194,"5":-0.007813009433448315,"6":-0.16484150290489197,"7":-0.1492869257926941,"8":-0.6411640048027039,"9":0.19873838126659393,"10":-0.07276303321123123,"11":-0.45816612243652344,"12":-2.0341665744781494,"13":1.0412328243255615,"14":0.17523880302906036,"15":-0.10503940284252167,"16":1.011857509613037,"17":0.03129378333687782,"18":0.01634899154305458,"19":0.19367334246635437,"20":-0.09861750900745392,"21":-1.5683945417404175,"22":-1.6869434118270874,"23":1.004589319229126,"24":0.14955422282218933}},"9":{"bias":-0.8367976546287537,"weights":{"0":0.08050993829965591,"1":0.07222501933574677,"2":0.10538599640130997,"3":-0.21712544560432434,"4":0.11922211199998856,"5":0.012494613416492939,"6":0.05246023088693619,"7":-0.715594470500946,"8":0.5631921887397766,"9":-0.02147066220641136,"10":0.09431824833154678,"11":-0.028515633195638657,"12":-1.3741599321365356,"13":-0.3137413561344147,"14":-0.08084426075220108,"15":-0.184120312333107,"16":3.740309715270996,"17":-0.514677882194519,"18":-0.5812722444534302,"19":-0.0021750552114099264,"20":0.03753286227583885,"21":1.1724141836166382,"22":0.42194265127182007,"23":-0.23754170536994934,"24":-0.0707792416214943}},"10":{"bias":0.25194546580314636,"weights":{"0":0.07994583994150162,"1":-0.33737412095069885,"2":0.536746621131897,"3":-0.3280046880245209,"4":0.05923642963171005,"5":0.0009236782207153738,"6":1.31545889377594,"7":0.5939685106277466,"8":-4.124626636505127,"9":-0.09377077221870422,"10":-0.13729248940944672,"11":0.14531223475933075,"12":0.4745756685733795,"13":-0.6144266724586487,"14":0.19099175930023193,"15":0.13098298013210297,"16":-0.13391202688217163,"17":0.660085141658783,"18":-0.08215726912021637,"19":-0.17876717448234558,"20":0.03690668195486069,"21":0.3740330636501312,"22":0.8166671395301819,"23":-0.6075047850608826,"24":0.025265773758292198}},"11":{"bias":0.3468594253063202,"weights":{"0":0.03450656309723854,"1":-0.0007842900813557208,"2":-0.1299014389514923,"3":-0.09488101303577423,"4":-0.12469065934419632,"5":0.17946606874465942,"6":1.5370776653289795,"7":0.46278244256973267,"8":-0.0542258657515049,"9":-0.06414217501878738,"10":0.06644728034734726,"11":-0.15868884325027466,"12":0.889503538608551,"13":-0.07495179027318954,"14":0.10155028104782104,"15":0.038325920701026917,"16":-2.7194669246673584,"17":0.417576402425766,"18":0.7035916447639465,"19":-0.15145063400268555,"20":-0.01889011077582836,"21":-0.7774673700332642,"22":-0.6414348483085632,"23":0.07938668131828308,"24":-0.08302781730890274}}},{"0":{"bias":-0.42734330892562866,"weights":{"0":-2.083889961242676,"1":0.9786672592163086,"2":-1.904909610748291,"3":-0.27236491441726685,"4":-1.9685107469558716,"5":1.2958436012268066,"6":-1.6929157972335815,"7":-2.651602029800415,"8":0.4438037574291229,"9":2.027055263519287,"10":-1.2577157020568848,"11":-1.8974345922470093}},"1":{"bias":-0.792646586894989,"weights":{"0":1.970720648765564,"1":-2.822862148284912,"2":-0.23607012629508972,"3":0.15884993970394135,"4":0.17518313229084015,"5":-2.4438910484313965,"6":-0.8813006281852722,"7":0.5194153785705566,"8":-0.8069227933883667,"9":-2.6734585762023926,"10":1.5732322931289673,"11":-0.07904144376516342}},"2":{"bias":-1.2534034252166748,"weights":{"0":1.6945557594299316,"1":-0.9999658465385437,"2":0.12466691434383392,"3":1.289275884628296,"4":1.2098052501678467,"5":-2.4935128688812256,"6":-2.0598816871643066,"7":-1.1738406419754028,"8":-0.6811795234680176,"9":1.1300668716430664,"10":-1.8108528852462769,"11":-2.5015885829925537}},"3":{"bias":-1.2294883728027344,"weights":{"0":0.2751106023788452,"1":1.5255972146987915,"2":1.37709379196167,"3":1.360619306564331,"4":-2.627131223678589,"5":-2.355736017227173,"6":-0.4199734628200531,"7":0.9587467908859253,"8":-2.247540235519409,"9":-1.4984512329101562,"10":-2.210253953933716,"11":-0.5245435833930969}},"4":{"bias":-1.3557006120681763,"weights":{"0":-0.7535293102264404,"1":-1.516446590423584,"2":-3.428013324737549,"3":-2.0223782062530518,"4":1.0474869012832642,"5":0.9547580480575562,"6":1.2206710577011108,"7":0.8702912926673889,"8":0.01184146013110876,"9":-2.2984721660614014,"10":-1.6859089136123657,"11":0.7116712927818298}},"5":{"bias":-1.1600605249404907,"weights":{"0":-1.1488866806030273,"1":-0.08251626789569855,"2":0.9081078171730042,"3":-2.375237464904785,"4":-3.2422828674316406,"5":-0.226577028632164,"6":0.8754298090934753,"7":-0.4301718473434448,"8":-0.8978403806686401,"9":-2.7967429161071777,"10":2.3370790481567383,"11":1.3169069290161133}},"6":{"bias":-1.0918744802474976,"weights":{"0":-0.5825513601303101,"1":-1.9805374145507812,"2":1.4974663257598877,"3":-2.5401105880737305,"4":-0.3111346960067749,"5":-1.0151886940002441,"6":0.7705773115158081,"7":-2.949328899383545,"8":-0.4059184491634369,"9":1.5252068042755127,"10":2.321669816970825,"11":-1.6614700555801392}},"7":{"bias":-1.3451436758041382,"weights":{"0":-1.1081583499908447,"1":-0.792487621307373,"2":-1.6919788122177124,"3":2.3487448692321777,"4":-2.739884376525879,"5":-0.3441971242427826,"6":-1.3952279090881348,"7":0.5772780776023865,"8":2.5164852142333984,"9":-1.6500014066696167,"10":-1.7816985845565796,"11":-0.05883920565247536}},"8":{"bias":-0.6339792609214783,"weights":{"0":-1.4512377977371216,"1":-0.03542715311050415,"2":-1.1808866262435913,"3":-2.9354772567749023,"4":3.265428304672241,"5":-0.7578042149543762,"6":0.03990905359387398,"7":-1.2524182796478271,"8":-2.20403790473938,"9":1.7072899341583252,"10":-1.8806997537612915,"11":-0.8757864236831665}},"9":{"bias":-0.4681416451931,"weights":{"0":-1.718220591545105,"1":2.258124828338623,"2":-1.2240092754364014,"3":-2.013251543045044,"4":-0.26992174983024597,"5":-0.194662407040596,"6":-1.1126364469528198,"7":0.5089938640594482,"8":-2.933544397354126,"9":-0.9441270232200623,"10":-1.4598346948623657,"11":1.5953618288040161}}}],"outputLookup":true,"inputLookup":false,"activation":"sigmoid","trainOpts":{"iterations":20000,"errorThresh":0.005,"log":false,"logPeriod":10,"learningRate":0.3,"momentum":0.1,"callbackPeriod":10,"beta1":0.9,"beta2":0.999,"epsilon":1e-8}}