{"sizes":[25,12,10],"layers":[{"0":{},"1":{},"2":{},"3":{},"4":{},"5":{},"6":{},"7":{},"8":{},"9":{},"10":{},"11":{},"12":{},"13":{},"14":{},"15":{},"16":{},"17":{},"18":{},"19":{},"20":{},"21":{},"22":{},"23":{},"24":{}},{"0":{"bias":-0.41491013765335083,"weights":{"0":-0.18022263050079346,"1":-0.5241144299507141,"2":-0.27313199639320374,"3":-0.09580980241298676,"4":-0.06309686601161957,"5":0.08191855251789093,"6":-0.2830422818660736,"7":0.11266511678695679,"8":-0.4000936448574066,"9":0.18261924386024475,"10":-0.19823209941387177,"11":-0.022246764972805977,"12":-0.4961700737476349,"13":-0.5687912106513977,"14":0.06940555572509766,"15":0.12396323680877686,"16":-0.147725909948349,"17":0.19200320541858673,"18":-0.5934305787086487,"19":0.17914123833179474,"20":0.0976991355419159,"21":-0.2520560026168823,"22":-0.31935951113700867,"23":-0.5672609210014343,"24":-0.09400101006031036}},"1":{"bias":-0.5359682440757751,"weights":{"0":-0.10335496068000793,"1":-0.5046178102493286,"2":-0.469798743724823,"3":-0.14872030913829803,"4":0.16878440976142883,"5":0.17662492394447327,"6":-0.45016539096832275,"7":-0.1702035665512085,"8":-0.29761022329330444,"9":0.0763443186879158,"10":-0.08935645967721939,"11":-0.001840852084569633,"12":-0.3238869309425354,"13":-0.23516421020030975,"14":0.18426555395126343,"15":-0.13882626593112946,"16":-0.17321553826332092,"17":-0.10121383517980576,"18":-0.6044671535491943,"19":0.18258407711982727,"20":0.09299331903457642,"21":-0.2957344055175781,"22":-0.5465710163116455,"23":-0.37055832147598267,"24":-0.17085354030132294}},"2":{"bias":-0.4426683783531189,"weights":{"0":0.07853179425001144,"1":-0.4392676055431366,"2":-0.39096084237098694,"3":-0.17453263700008392,"4":-0.020047232508659363,"5":-0.0746598169207573,"6":-0.44217565655708313,"7":-0.017762450501322746,"8":-0.4915038049221039,"9":-0.09809479862451553,"10":-0.1554548591375351,"11":-0.16932323575019836,"12":-0.28909698128700256,"13":-0.5348346829414368,"14":-0.17937050759792328,"15":0.14948318898677826,"16":0.0326727032661438,"17":-0.10875236988067627,"18":-0.45435377955436707,"19":0.0006655689212493598,"20":-0.08242704719305038,"21":-0.42461732029914856,"22":-0.3023487627506256,"23":-0.4711054861545563,"24":-0.02381911873817444}},"3":{"bias":-0.2997954189777374,"weights":{"0":0.11312883347272873,"1":-0.34793320298194885,"2":-0.46675798296928406,"3":0.1632857322692871,"4":-0.030095679685473442,"5":0.13508492708206177,"6":-0.4291587769985199,"7":0.10624720901250839,"8":-0.5937649011611938,"9":-0.18494269251823425,"10":-0.008376765996217728,"11":0.13222277164459229,"12":-0.6065574884414673,"13":-0.32675328850746155,"14":-0.00887828879058361,"15":-0.010895982384681702,"16":-0.16413916647434235,"17":-0.06389492750167847,"18":-0.24465207755565643,"19":0.01749178022146225,"20":-0.04328718036413193,"21":-0.5413296222686768,"22":-0.36085090041160583,"23":-0.49620118737220764,"24":-0.10415902733802795}},"4":{"bias":-0.3765757381916046,"weights":{"0":0.1708797663450241,"1":-0.591439962387085,"2":-0.32751575112342834,"3":-0.03324000537395477,"4":0.07193136215209961,"5":-0.17223531007766724,"6":-0.44010409712791443,"7":-0.16775639355182648,"8":-0.369507759809494,"9":0.17633578181266785,"10":0.11632587760686874,"11":-0.0025813451502472162,"12":-0.46645238995552063,"13":-0.42375943064689636,"14":-0.18101635575294495,"15":-0.14195354282855988,"16":0.020516568794846535,"17":0.14676277339458466,"18":-0.5702943801879883,"19":0.1301334947347641,"20":0.15252375602722168,"21":-0.31690916419029236,"22":-0.3943665325641632,"23":-0.45479997992515564,"24":0.19059638679027557}},"5":{"bias":-0.2922138273715973,"weights":{"0":-0.08599056303501129,"1":-0.3997569680213928,"2":-0.36158299446105957,"3":-0.18632978200912476,"4":0.1486573964357376,"5":0.15297017991542816,"6":-0.5449357628822327,"7":0.1771215945482254,"8":-0.5872645974159241,"9":0.05652772635221481,"10":-0.17574435472488403,"11":0.053986694663763046,"12":-0.4255990982055664,"13":-0.29203593730926514,"14":0.1232680156826973,"15":-0.09591715782880783,"16":-0.08383246511220932,"17":0.0358106903731823,"18":-0.4249500036239624,"19":-0.09231337159872055,"20":0.1860056072473526,"21":-0.5227848887443542,"22":-0.38451606035232544,"23":-0.43614715337753296,"24":0.1582774668931961}},"6":{"bias":-0.29042091965675354,"weights":{"0":-0.07026353478431702,"1":-0.5649252533912659,"2":-0.39921870827674866,"3":0.12501896917819977,"4":0.029447801411151886,"5":0.10729954391717911,"6":-0.5472491383552551,"7":-0.19398298859596252,"8":-0.3563338816165924,"9":-0.08537789434194565,"10":0.17719660699367523,"11":0.05890217423439026,"12":-0.5624521374702454,"13":-0.5001095533370972,"14":-0.17786335945129395,"15":-0.12484416365623474,"16":-0.0015917657874524593,"17":-0.07887482643127441,"18":-0.28222736716270447,"19":-0.10026136785745621,"20":-0.14001500606536865,"21":-0.348436564207077,"22":-0.5251784324645996,"23":-0.32953134179115295,"24":-0.0792451947927475}},"7":{"bias":-0.24590566754341125,"weights":{"0":0.091269850730896,"1":-0.538292407989502,"2":-0.5811655521392822,"3":0.12833628058433533,"4":-0.15642592310905457,"5":0.17312029004096985,"6":-0.5094186663627625,"7":-0.10785213112831116,"8":-0.3389853537082672,"9":0.01804852858185768,"10":0.15563353896141052,"11":-0.15117795765399933,"12":-0.49608346819877625,"13":-0.43581703305244446,"14":0.06760959327220917,"15":0.16989928483963013,"16":-0.09412288665771484,"17":0.09161315113306046,"18":-0.37334027886390686,"19":-0.09447968006134033,"20":-0.08338277041912079,"21":-0.3587513267993927,"22":-0.4100479781627655,"23":-0.37960103154182434,"24":0.00210883398540318}},"8":{"bias":-0.36308106780052185,"weights":{"0":-0.045763760805130005,"1":-0.3256901502609253,"2":-0.2802507281303406,"3":0.08918249607086182,"4":-0.1623920351266861,"5":0.1775800883769989,"6":-0.4497247338294983,"7":0.17962920665740967,"8":-0.568972110748291,"9":0.024614157155156136,"10":0.18125639855861664,"11":0.12255662679672241,"12":-0.4866636395454407,"13":-0.34739840030670166,"14":-0.05523886904120445,"15":0.18438346683979034,"16":0.13562533259391785,"17":0.15442460775375366,"18":-0.2872859835624695,"19":-0.00901892501860857,"20":0.1378985047340393,"21":-0.3408392667770386,"22":-0.6328541040420532,"23":-0.5995365381240845,"24":0.03667214885354042}},"9":{"bias":-0.2664327323436737,"weights":{"0":-0.05284266918897629,"1":-0.2693954110145569,"2":-0.524634599685669,"3":0.03501454368233681,"4":0.07415711134672165,"5":0.19564594328403473,"6":-0.6101250648498535,"7":0.010822363197803497,"8":-0.39841675758361816,"9":-0.08354838192462921,"10":-0.04909989610314369,"11":0.15259341895580292,"12":-0.3026707172393799,"13":-0.537567138671875,"14":0.18318073451519012,"15":-0.07066650688648224,"16":-0.02328077144920826,"17":-0.18618987500667572,"18":-0.6284114122390747,"19":-0.0019548642449080944,"20":0.1613641083240509,"21":-0.3975651264190674,"22":-0.4164319634437561,"23":-0.3102000951766968,"24":-0.07338737696409225}},"10":{"bias":-0.431619793176651,"weights":{"0":0.08368874341249466,"1":-0.2263556271791458,"2":-0.579014003276825,"3":0.015744801610708237,"4":-0.08033133298158646,"5":0.05402643233537674,"6":-0.5604339241981506,"7":0.06498013436794281,"8":-0.42756274342536926,"9":0.12192769348621368,"10":0.18768636882305145,"11":-0.1431097537279129,"12":-0.5094278454780579,"13":-0.42737409472465515,"14":0.0030714862514287233,"15":0.08565570414066315,"16":0.013010107912123203,"17":-0.13060316443443298,"18":-0.30765005946159363,"19":0.09735599905252457,"20":0.133498415350914,"21":-0.44802913069725037,"22":-0.5409875512123108,"23":-0.2251666635274887,"24":0.17160315811634064}},"11":{"bias":-0.23197682201862335,"weights":{"0":0.04303715378046036,"1":-0.27182233333587646,"2":-0.48186081647872925,"3":-0.14364740252494812,"4":0.14374187588691711,"5":-0.02042519859969616,"6":-0.5165452361106873,"7":0.11115873605012894,"8":-0.2573016881942749,"9":0.08762334287166595,"10":-0.07699555903673172,"11":0.061886467039585114,"12":-0.46075189113616943,"13":-0.5290308594703674,"14":0.008818479254841805,"15":0.18187743425369263,"16":-0.00187415792606771,"17":-0.09416624158620834,"18":-0.40159374475479126,"19":-0.09318196773529053,"20":-0.0696464329957962,"21":-0.5001382231712341,"22":-0.5217880606651306,"23":-0.506541907787323,"24":0.11191882193088531}}},{"0":{"bias":-1.8630462884902954,"weights":{"0":-0.2746291160583496,"1":-0.5431294441223145,"2":-0.3516208529472351,"3":-0.25058412551879883,"4":-0.26701176166534424,"5":-0.4461457133293152,"6":-0.34311291575431824,"7":-0.37338462471961975,"8":-0.3832702934741974,"9":-0.433837890625,"10":-0.3884848356246948,"11":-0.38350966572761536}},"1":{"bias":-2.777613401412964,"weights":{"0":-0.8630368113517761,"1":-1.464295744895935,"2":-0.8025313019752502,"3":-0.6356070041656494,"4":-0.5243730545043945,"5":-0.9940919876098633,"6":-0.6094362735748291,"7":-0.8577594757080078,"8":-0.9988754391670227,"9":-1.2083652019500732,"10":-0.883939802646637,"11":-0.6566994190216064}},"2":{"bias":-2.4997191429138184,"weights":{"0":-0.5406634211540222,"1":-1.1778080463409424,"2":-0.5523871779441833,"3":-0.5802930593490601,"4":-0.4906373918056488,"5":-0.7608982920646667,"6":-0.5193521976470947,"7":-0.7992138862609863,"8":-0.6426670551300049,"9":-0.8958498239517212,"10":-0.6106037497520447,"11":-0.6321970224380493}},"3":{"bias":-1.7985990047454834,"weights":{"0":-0.2381610870361328,"1":-0.5464068651199341,"2":-0.3128884434700012,"3":-0.22236669063568115,"4":-0.2378438413143158,"5":-0.3836369514465332,"6":-0.2297554612159729,"7":-0.3349289894104004,"8":-0.3128761947154999,"9":-0.39800792932510376,"10":-0.31319332122802734,"11":-0.30541881918907166}},"4":{"bias":-2.4807887077331543,"weights":{"0":-0.6248580813407898,"1":-1.015822172164917,"2":-0.6147862672805786,"3":-0.6672731041908264,"4":-0.5145547389984131,"5":-0.7715325951576233,"6":-0.5869578123092651,"7":-0.7952132821083069,"8":-0.7029973268508911,"9":-0.8227791786193848,"10":-0.7039870619773865,"11":-0.6113690733909607}},"5":{"bias":-2.468552350997925,"weights":{"0":-0.5635315775871277,"1":-1.2121859788894653,"2":-0.6632210612297058,"3":-0.6239275336265564,"4":-0.5042151808738708,"5":-0.9161586761474609,"6":-0.6198562979698181,"7":-0.8018043041229248,"8":-0.8340755701065063,"9":-0.9827540516853333,"10":-0.7455219626426697,"11":-0.6452491283416748}},"6":{"bias":-2.0543928146362305,"weights":{"0":-0.2589230239391327,"1":-0.666697084903717,"2":-0.27942684292793274,"3":-0.2503155767917633,"4":-0.2698819935321808,"5":-0.41361889243125916,"6":-0.2826771140098572,"7":-0.37475547194480896,"8":-0.3296253979206085,"9":-0.48517388105392456,"10":-0.30216655135154724,"11":-0.3083178400993347}},"7":{"bias":-1.8341153860092163,"weights":{"0":-0.3663308918476105,"1":-0.6753534078598022,"2":-0.4039422869682312,"3":-0.4507890045642853,"4":-0.3931332528591156,"5":-0.5494263172149658,"6":-0.4593794047832489,"7":-0.4391506612300873,"8":-0.45787712931632996,"9":-0.5576700568199158,"10":-0.4451409578323364,"11":-0.40200239419937134}},"8":{"bias":-3.1712207794189453,"weights":{"0":-0.817876935005188,"1":-1.5696173906326294,"2":-0.884578287601471,"3":-0.6883618831634521,"4":-0.6124435663223267,"5":-1.0203582048416138,"6":-0.8013225793838501,"7":-1.0891255140304565,"8":-0.8884888887405396,"9":-1.0543196201324463,"10":-0.883208155632019,"11":-0.9654250144958496}},"9":{"bias":-1.4502283334732056,"weights":{"0":-0.31230950355529785,"1":-0.5400649309158325,"2":-0.30779528617858887,"3":-0.2776593267917633,"4":-0.09523311257362366,"5":-0.34564104676246643,"6":-0.256054162979126,"7":-0.3363323509693146,"8":-0.2934677302837372,"9":-0.41194087266921997,"10":-0.28849291801452637,"11":-0.2783418595790863}}}],"outputLookup":true,"inputLookup":false,"activation":"sigmoid","trainOpts":{"iterations":20000,"errorThresh":0.005,"log":false,"logPeriod":10,"learningRate":0.3,"momentum":0.1,"callbackPeriod":10,"beta1":0.9,"beta2":0.999,"epsilon":1e-8}}