{"sizes":[25,12,11],"layers":[{"0":{},"1":{},"2":{},"3":{},"4":{},"5":{},"6":{},"7":{},"8":{},"9":{},"10":{},"11":{},"12":{},"13":{},"14":{},"15":{},"16":{},"17":{},"18":{},"19":{},"20":{},"21":{},"22":{},"23":{},"24":{}},{"0":{"bias":2.9064760208129883,"weights":{"0":1.5029478073120117,"1":0.9493586421012878,"2":-0.10323568433523178,"3":-0.32776758074760437,"4":-0.245736226439476,"5":0.3697513937950134,"6":-0.3807504177093506,"7":-0.128741055727005,"8":0.3726964592933655,"9":0.32870951294898987,"10":-0.07817856222391129,"11":-0.11879605799913406,"12":-1.1387548446655273,"13":0.09908795356750488,"14":0.036996595561504364,"15":-0.04383915290236473,"16":0.11356975138187408,"17":-0.6345716118812561,"18":-0.05452926084399223,"19":-0.04594029486179352,"20":-1.4039973020553589,"21":-1.2005982398986816,"22":-2.0134754180908203,"23":-1.0417698621749878,"24":0.03997182101011276}},"1":{"bias":0.16300050914287567,"weights":{"0":-0.4359859526157379,"1":0.29807838797569275,"2":3.0428545475006104,"3":0.14444881677627563,"4":0.033581607043743134,"5":-0.5911107063293457,"6":-0.5343925952911377,"7":1.0682599544525146,"8":-0.8077783584594727,"9":-0.46517279744148254,"10":-0.4956314265727997,"11":-0.08712553232908249,"12":2.4644718170166016,"13":-0.26111605763435364,"14":-0.2791522145271301,"15":-0.27398332953453064,"16":-1.3756821155548096,"17":1.5180282592773438,"18":-0.7177166938781738,"19":-0.3869835436344147,"20":0.03659149631857872,"21":-0.4545077383518219,"22":2.0237948894500732,"23":-0.18307937681674957,"24":-0.03931359201669693}},"2":{"bias":1.57920503616333,"weights":{"0":-2.512423038482666,"1":-3.0191709995269775,"2":-1.1920527219772339,"3":-1.420985221862793,"4":-0.47629809379577637,"5":-0.7700402736663818,"6":0.11113709956407547,"7":-1.4886205196380615,"8":-3.149648666381836,"9":-3.6300370693206787,"10":-0.5419977307319641,"11":3.6128132343292236,"12":3.2348053455352783,"13":2.8925960063934326,"14":0.1034337654709816,"15":3.752067804336548,"16":2.651413917541504,"17":2.9866819381713867,"18":-1.397605061531067,"19":-0.6443001627922058,"20":-1.187562346458435,"21":-0.9291406273841858,"22":-1.2386399507522583,"23":-0.3095276355743408,"24":0.36594411730766296}},"3":{"bias":0.2631453275680542,"weights":{"0":0.0039667836390435696,"1":0.5789246559143066,"2":2.013237714767456,"3":-0.18977606296539307,"4":-0.9127839803695679,"5":5.008092403411865,"6":2.5242679119110107,"7":1.9306119680404663,"8":-0.7451316118240356,"9":-1.3682514429092407,"10":-0.47687575221061707,"11":0.12130795419216156,"12":0.5239063501358032,"13":-0.46735331416130066,"14":-0.5399138927459717,"15":-3.8293371200561523,"16":-3.3027117252349854,"17":-2.7447197437286377,"18":0.45050495862960815,"19":1.7099806070327759,"20":-1.0849188566207886,"21":-1.721016526222229,"22":-0.4341624975204468,"23":-1.3021405935287476,"24":-0.603904664516449}},"4":{"bias":0.379688560962677,"weights":{"0":-0.03969292715191841,"1":-1.2186081409454346,"2":-2.6830759048461914,"3":-1.356999158859253,"4":-0.6103933453559875,"5":3.3679399490356445,"6":2.4753050804138184,"7":3.2111270427703857,"8":2.4005777835845947,"9":2.446523904800415,"10":-0.022947805002331734,"11":0.5937407612800598,"12":-0.10374962538480759,"13":1.1166787147521973,"14":-0.23145069181919098,"15":1.2761396169662476,"16":0.8683769702911377,"17":0.7060385346412659,"18":1.4041069746017456,"19":0.843254804611206,"20":-1.16649329662323,"21":-0.3174721598625183,"22":-1.6723357439041138,"23":-0.21775372326374054,"24":-0.15515829622745514}},"5":{"bias":3.8026654720306396,"weights":{"0":1.7814569473266602,"1":1.2513731718063354,"2":1.3968383073806763,"3":0.12289994955062866,"4":-0.06513483077287674,"5":-4.485746383666992,"6":-3.7630109786987305,"7":-2.8819806575775146,"8":-1.1689101457595825,"9":-0.9423703551292419,"10":0.3670562207698822,"11":0.16809789836406708,"12":0.35862961411476135,"13":-0.11938195675611496,"14":0.3629794716835022,"15":-1.4181982278823853,"16":-0.8947263360023499,"17":-1.0350799560546875,"18":-0.924822986125946,"19":-1.8696988821029663,"20":-1.394378900527954,"21":-1.3113219738006592,"22":-0.6906142830848694,"23":-0.8578766584396362,"24":0.04383706673979759}},"6":{"bias":-0.8615688681602478,"weights":{"0":-1.5373508930206299,"1":-1.7597507238388062,"2":-0.7182566523551941,"3":-0.9406906366348267,"4":0.1433722823858261,"5":0.5802652835845947,"6":0.03215669468045235,"7":-0.3008057177066803,"8":-0.329824298620224,"9":0.07509300857782364,"10":0.7614040374755859,"11":2.2584192752838135,"12":2.04219388961792,"13":1.4016374349594116,"14":0.21978890895843506,"15":-0.14504556357860565,"16":-0.5446847081184387,"17":-0.14367012679576874,"18":-0.14182336628437042,"19":0.05991681292653084,"20":0.5724825859069824,"21":0.4961145520210266,"22":0.8252781629562378,"23":0.3489859104156494,"24":-0.06740133464336395}},"7":{"bias":-0.3537449836730957,"weights":{"0":-0.415711909532547,"1":0.562298595905304,"2":-0.9390044212341309,"3":0.9983285069465637,"4":0.3432910442352295,"5":0.9802972674369812,"6":1.5724084377288818,"7":1.439024567604065,"8":1.558287501335144,"9":1.5471538305282593,"10":-1.5094035863876343,"11":-2.6443517208099365,"12":-3.4798243045806885,"13":-2.367676019668579,"14":-0.2902960181236267,"15":3.3735785484313965,"16":3.304577350616455,"17":3.741368293762207,"18":2.1387064456939697,"19":1.8843191862106323,"20":0.4798241853713989,"21":1.6509521007537842,"22":0.264443576335907,"23":0.8352868556976318,"24":-0.42982184886932373}},"8":{"bias":1.0955920219421387,"weights":{"0":1.634920358657837,"1":-1.0514642000198364,"2":-2.099703311920166,"3":-1.5570158958435059,"4":-0.02806657738983631,"5":2.545499324798584,"6":2.1626362800598145,"7":0.6440829038619995,"8":0.9524067640304565,"9":0.6460481882095337,"10":1.0720481872558594,"11":0.9868373870849609,"12":-0.6554584503173828,"13":0.7347268462181091,"14":0.414410263299942,"15":-0.044894006103277206,"16":0.7455276250839233,"17":-0.14067842066287994,"18":1.8420932292938232,"19":1.199334740638733,"20":-1.582768440246582,"21":-1.9302864074707031,"22":-3.047682762145996,"23":-1.421928882598877,"24":0.7601622939109802}},"9":{"bias":0.270546555519104,"weights":{"0":0.7099321484565735,"1":0.17543821036815643,"2":1.2265084981918335,"3":-1.07548189163208,"4":-1.1095541715621948,"5":-1.3599834442138672,"6":-0.6944153308868408,"7":0.8578739762306213,"8":1.391287088394165,"9":2.1893343925476074,"10":0.5948335528373718,"11":1.260475516319275,"12":1.8222978115081787,"13":1.4175306558609009,"14":-0.6934823989868164,"15":-6.187620639801025,"16":-3.569279909133911,"17":-2.483435869216919,"18":0.22281907498836517,"19":-0.06544041633605957,"20":-0.664076030254364,"21":-1.6305463314056396,"22":-0.3537551760673523,"23":-1.490767240524292,"24":-0.47858375310897827}},"10":{"bias":1.6353332996368408,"weights":{"0":-1.8140652179718018,"1":-0.9950578212738037,"2":-0.03815556317567825,"3":-0.3128518760204315,"4":-0.5687081813812256,"5":-1.6221085786819458,"6":-0.564797580242157,"7":2.4006073474884033,"8":2.2819178104400635,"9":2.9485318660736084,"10":-1.4668830633163452,"11":-1.4064959287643433,"12":-0.6755179762840271,"13":-1.351464867591858,"14":-1.1229374408721924,"15":4.1650238037109375,"16":1.8329737186431885,"17":0.4859078526496887,"18":-1.9902288913726807,"19":-3.6426966190338135,"20":-1.2701719999313354,"21":-0.23246051371097565,"22":1.748852014541626,"23":0.5454179644584656,"24":-1.1373690366744995}},"11":{"bias":1.6805003881454468,"weights":{"0":-0.21496333181858063,"1":2.357851505279541,"2":2.7148594856262207,"3":2.5656111240386963,"4":0.27653536200523376,"5":-0.32763907313346863,"6":-1.3678139448165894,"7":-3.1342551708221436,"8":-3.5219714641571045,"9":-4.7900824546813965,"10":-1.4433856010437012,"11":-3.8585922718048096,"12":-3.4581198692321777,"13":-4.141659259796143,"14":-0.10638442635536194,"15":-0.2529662251472473,"16":-0.08604765683412552,"17":1.0050220489501953,"18":0.38180139660835266,"19":1.0925387144088745,"20":-0.27090173959732056,"21":1.2020201683044434,"22":2.3036324977874756,"23":1.4555656909942627,"24":-0.027119942009449005}}},{"0":{"bias":-1.678040623664856,"weights":{"0":-2.4566009044647217,"1":0.5779944062232971,"2":-2.665046215057373,"3":-3.141608238220215,"4":1.6228415966033936,"5":-2.7644753456115723,"6":0.5328909754753113,"7":1.0033584833145142,"8":2.2725720405578613,"9":-2.779691219329834,"10":-2.4112870693206787,"11":-3.5786993503570557}},"1":{"bias":-1.5835607051849365,"weights":{"0":-2.1146457195281982,"1":-1.567586064338684,"2":-4.901271820068359,"3":-2.2516491413116455,"4":-0.4304681420326233,"5":-3.1583240032196045,"6":-2.170166254043579,"7":4.339760780334473,"8":-3.023825168609619,"9":-4.0692620277404785,"10":3.5896964073181152,"11":4.013951778411865}},"2":{"bias":-0.6303864121437073,"weights":{"0":3.661989688873291,"1":-7.328057765960693,"2":-0.9097433686256409,"3":-3.057676076889038,"4":2.950843095779419,"5":0.0706344023346901,"6":-3.218233108520508,"7":2.117072105407715,"8":1.6595325469970703,"9":-1.5582927465438843,"10":-0.8954957723617554,"11":-1.8531886339187622}},"3":{"bias":-1.1284947395324707,"weights":{"0":-0.7948622107505798,"1":0.057707689702510834,"2":1.9845017194747925,"3":-6.292995452880859,"4":-3.905317783355713,"5":2.3001062870025635,"6":-0.40199780464172363,"7":-2.2464356422424316,"8":-2.7449300289154053,"9":-3.1522138118743896,"10":5.264826774597168,"11":-2.533850908279419}},"4":{"bias":-0.42874759435653687,"weights":{"0":-2.1379458904266357,"1":0.6320787668228149,"2":-4.531509876251221,"3":-3.3411951065063477,"4":-5.656838417053223,"5":4.006697177886963,"6":0.09829165786504745,"7":-3.601329803466797,"8":-2.647378921508789,"9":5.724916934967041,"10":-3.4647819995880127,"11":-1.7959221601486206}},"5":{"bias":-2.199276924133301,"weights":{"0":0.14846175909042358,"1":-1.8510295152664185,"2":1.4241020679473877,"3":1.2261967658996582,"4":1.3410903215408325,"5":-1.483029842376709,"6":-0.3220374584197998,"7":-6.736210823059082,"8":4.280006408691406,"9":2.461459159851074,"10":-2.020689010620117,"11":-5.02057409286499}},"6":{"bias":-1.5645238161087036,"weights":{"0":-1.356182336807251,"1":-0.3930607736110687,"2":2.1346144676208496,"3":5.852358818054199,"4":-4.340239524841309,"5":-0.5830196738243103,"6":-0.9480159282684326,"7":-6.9794135093688965,"8":-1.4262759685516357,"9":-1.5758533477783203,"10":-5.131575107574463,"11":3.5527842044830322}},"7":{"bias":-1.7543644905090332,"weights":{"0":-2.2592320442199707,"1":-0.3934176564216614,"2":4.904049396514893,"3":-2.598574638366699,"4":-3.6165285110473633,"5":-2.7389891147613525,"6":0.017788903787732124,"7":2.1787147521972656,"8":-2.3946382999420166,"9":-6.967381477355957,"10":-4.6076178550720215,"11":3.5011775493621826}},"8":{"bias":-2.1135902404785156,"weights":{"0":1.3462562561035156,"1":-0.2907399833202362,"2":-5.197911262512207,"3":1.204361915588379,"4":-3.0555219650268555,"5":2.604581117630005,"6":-5.401546955108643,"7":0.7658675909042358,"8":-1.6929527521133423,"9":0.4657684564590454,"10":-0.8594982624053955,"11":3.433490753173828}},"9":{"bias":-3.049644708633423,"weights":{"0":-2.8960654735565186,"1":-1.285856008529663,"2":4.619855880737305,"3":-1.5218970775604248,"4":2.2332534790039062,"5":-5.347562789916992,"6":0.0786244347691536,"7":3.2552318572998047,"8":-5.340992450714111,"9":-1.3186029195785522,"10":2.507065534591675,"11":-7.386216163635254}},"NaN":{"bias":-0.36605387926101685,"weights":{"0":-2.383493423461914,"1":1.2112526893615723,"2":-6.231675624847412,"3":4.235623359680176,"4":0.7543689012527466,"5":-5.865192413330078,"6":0.8044832944869995,"7":-1.4449251890182495,"8":-4.444597244262695,"9":2.7284364700317383,"10":-1.5020687580108643,"11":-4.757716178894043}}}],"outputLookup":true,"inputLookup":false,"activation":"sigmoid","trainOpts":{"iterations":20000,"errorThresh":0.005,"log":false,"logPeriod":10,"learningRate":0.3,"momentum":0.1,"callbackPeriod":10,"beta1":0.9,"beta2":0.999,"epsilon":1e-8}}