{"sizes":[25,12,11],"layers":[{"0":{},"1":{},"2":{},"3":{},"4":{},"5":{},"6":{},"7":{},"8":{},"9":{},"10":{},"11":{},"12":{},"13":{},"14":{},"15":{},"16":{},"17":{},"18":{},"19":{},"20":{},"21":{},"22":{},"23":{},"24":{}},{"0":{"bias":2.7415573596954346,"weights":{"0":0.8005614876747131,"1":2.472939968109131,"2":0.5893149375915527,"3":0.992570698261261,"4":-0.19983790814876556,"5":1.0321904420852661,"6":0.08633431047201157,"7":0.34656059741973877,"8":0.35239821672439575,"9":0.012082885019481182,"10":-1.0405585765838623,"11":-2.8516314029693604,"12":-2.8540728092193604,"13":-2.7584047317504883,"14":-0.5081616044044495,"15":-1.5699150562286377,"16":-0.9573462009429932,"17":0.06032209470868111,"18":1.2081298828125,"19":0.6457170844078064,"20":-0.6266406178474426,"21":0.20522835850715637,"22":-0.3348886966705322,"23":-0.24875397980213165,"24":-0.36641940474510193}},"1":{"bias":1.1151965856552124,"weights":{"0":0.8078241944313049,"1":-0.16581955552101135,"2":-0.4220944046974182,"3":-0.6892727613449097,"4":-0.07578384876251221,"5":1.6273729801177979,"6":1.4687621593475342,"7":-0.3882102370262146,"8":-1.1432957649230957,"9":-0.9008524417877197,"10":0.0034448278602212667,"11":0.9428495764732361,"12":1.140850305557251,"13":0.8911657333374023,"14":0.2811359465122223,"15":1.0691697597503662,"16":0.7654855847358704,"17":0.2780197560787201,"18":1.3229302167892456,"19":0.6184077262878418,"20":-1.3663729429244995,"21":-2.1969034671783447,"22":-2.362011671066284,"23":-0.9231508374214172,"24":0.38181570172309875}},"2":{"bias":2.4215681552886963,"weights":{"0":0.1230260580778122,"1":1.1009200811386108,"2":3.015622615814209,"3":0.2660593092441559,"4":-0.49982258677482605,"5":-2.4270870685577393,"6":-2.4740655422210693,"7":-2.943361759185791,"8":-2.6652910709381104,"9":-2.8175718784332275,"10":-0.26622474193573,"11":0.5581384301185608,"12":1.7831777334213257,"13":0.1090754047036171,"14":0.04174422472715378,"15":-2.413572072982788,"16":-2.3240339756011963,"17":-1.9969578981399536,"18":-1.6589957475662231,"19":-1.2549086809158325,"20":-0.6224830746650696,"21":-2.1863999366760254,"22":-0.08884511888027191,"23":-1.0954653024673462,"24":-0.15172919631004333}},"3":{"bias":2.6283435821533203,"weights":{"0":0.9078706502914429,"1":-1.3007959127426147,"2":-1.5777060985565186,"3":-1.4256266355514526,"4":-0.08687405288219452,"5":1.083627700805664,"6":0.13522814214229584,"7":-0.9251782894134521,"8":0.4288036525249481,"9":0.0930924192070961,"10":0.7992135882377625,"11":1.495681881904602,"12":0.5459915399551392,"13":1.0665404796600342,"14":0.6154125332832336,"15":0.03499242663383484,"16":0.8970590233802795,"17":0.24605320394039154,"18":1.1206996440887451,"19":0.6250237822532654,"20":-1.9079010486602783,"21":-2.121300458908081,"22":-2.8442678451538086,"23":-1.0164713859558105,"24":0.6728120446205139}},"4":{"bias":0.43378400802612305,"weights":{"0":-1.5714854001998901,"1":-0.8306035399436951,"2":0.07738041132688522,"3":1.9834073781967163,"4":0.5486940145492554,"5":0.2729159891605377,"6":-0.5714448690414429,"7":-3.291146755218506,"8":-4.037535667419434,"9":-6.177459239959717,"10":-0.5897594690322876,"11":-1.7347993850708008,"12":-1.6560733318328857,"13":-2.0266990661621094,"14":0.25301939249038696,"15":0.4534314274787903,"16":1.385708212852478,"17":2.7562081813812256,"18":-0.5779753923416138,"19":-0.09671413898468018,"20":0.3982933461666107,"21":1.4910027980804443,"22":2.1900699138641357,"23":2.6657536029815674,"24":0.363355815410614}},"5":{"bias":0.48324570059776306,"weights":{"0":-0.6749334931373596,"1":-0.20356275141239166,"2":-0.9016903638839722,"3":0.3599855601787567,"4":0.5830113887786865,"5":-1.0504754781723022,"6":0.2769070565700531,"7":1.6756449937820435,"8":2.4034149646759033,"9":4.092427730560303,"10":-0.5728103518486023,"11":-2.5658411979675293,"12":-2.3704679012298584,"13":-2.511533498764038,"14":-0.10392633080482483,"15":2.9110758304595947,"16":1.2467777729034424,"17":-1.0209424495697021,"18":-1.3084145784378052,"19":-3.381427049636841,"20":0.3970140814781189,"21":1.9051660299301147,"22":2.0984156131744385,"23":1.5200592279434204,"24":-0.009265709668397903}},"6":{"bias":1.7179878950119019,"weights":{"0":2.2722465991973877,"1":2.1126909255981445,"2":-0.3004419505596161,"3":0.5363016128540039,"4":0.6883429884910583,"5":0.19249233603477478,"6":0.041271235793828964,"7":-0.791533887386322,"8":1.082934856414795,"9":0.03541551157832146,"10":-0.21893298625946045,"11":-2.770048141479492,"12":-3.320342779159546,"13":-2.4841904640197754,"14":0.8278340101242065,"15":0.5748469829559326,"16":1.50021493434906,"17":0.6563606858253479,"18":1.067563772201538,"19":0.97601318359375,"20":-0.08767380565404892,"21":-0.29986998438835144,"22":-1.423731803894043,"23":0.060130588710308075,"24":0.6665527820587158}},"7":{"bias":0.4196885824203491,"weights":{"0":-0.9496191143989563,"1":-1.4534087181091309,"2":-1.7485228776931763,"3":-0.7744919657707214,"4":-0.3528346121311188,"5":6.905019760131836,"6":4.6874098777771,"7":3.3852291107177734,"8":-0.07078895717859268,"9":-1.2370076179504395,"10":-0.22555182874202728,"11":1.403287410736084,"12":0.708026111125946,"13":0.6592354774475098,"14":-0.11132099479436874,"15":0.7008810639381409,"16":0.3804057836532593,"17":-0.3597009778022766,"18":0.5560405850410461,"19":1.5249536037445068,"20":-1.0692138671875,"21":-0.6315109133720398,"22":-1.3063561916351318,"23":0.2625617980957031,"24":0.1808886080980301}},"8":{"bias":-0.4462442398071289,"weights":{"0":-0.40482813119888306,"1":-1.3512450456619263,"2":-2.6422300338745117,"3":-1.5610370635986328,"4":-0.7715193033218384,"5":0.87114417552948,"6":0.038227956742048264,"7":2.181076765060425,"8":2.7075207233428955,"9":2.214038848876953,"10":-0.10465482622385025,"11":2.4094152450561523,"12":1.7784614562988281,"13":2.1492762565612793,"14":-0.2703424394130707,"15":1.751402497291565,"16":1.987902283668518,"17":2.793776273727417,"18":1.4546700716018677,"19":0.5102944374084473,"20":-1.1319994926452637,"21":-1.003015398979187,"22":-2.944810390472412,"23":-0.9526321887969971,"24":-0.3842313885688782}},"9":{"bias":1.4203941822052002,"weights":{"0":-0.4840196371078491,"1":-1.2784978151321411,"2":-0.1375257670879364,"3":-1.2893270254135132,"4":-0.2236248105764389,"5":-0.8037048578262329,"6":-1.679118275642395,"7":-1.3183947801589966,"8":-0.7370882630348206,"9":-0.16479656100273132,"10":1.4741297960281372,"11":3.0037853717803955,"12":3.0188701152801514,"13":1.9578895568847656,"14":0.02198796533048153,"15":-4.958471775054932,"16":-4.038638114929199,"17":-3.438957691192627,"18":-1.50457763671875,"19":-0.7894842028617859,"20":0.3362142741680145,"21":-0.4020787179470062,"22":-0.13413837552070618,"23":-0.8550517559051514,"24":0.09492722898721695}},"10":{"bias":-2.274613857269287,"weights":{"0":-1.1387871503829956,"1":0.38202932476997375,"2":2.990770101547241,"3":0.41891995072364807,"4":0.1298057734966278,"5":0.6977795362472534,"6":2.273066282272339,"7":2.4930903911590576,"8":0.09998995065689087,"9":0.19863690435886383,"10":-1.4732016324996948,"11":-1.29167902469635,"12":0.545647382736206,"13":-0.4966545104980469,"14":0.018794141709804535,"15":-1.5302555561065674,"16":-1.2691627740859985,"17":2.2156901359558105,"18":0.6150743961334229,"19":0.30919674038887024,"20":-0.6491220593452454,"21":-1.215681552886963,"22":1.6153051853179932,"23":0.0014841227093711495,"24":-0.3304111659526825}},"11":{"bias":1.0414732694625854,"weights":{"0":-2.1989078521728516,"1":-1.617531418800354,"2":-0.47579821944236755,"3":0.4853958785533905,"4":-0.19619517028331757,"5":-3.3034698963165283,"6":-2.2375521659851074,"7":-1.4367836713790894,"8":-1.8486915826797485,"9":-1.5061923265457153,"10":-0.5879250168800354,"11":-0.11575907468795776,"12":-0.24693092703819275,"13":0.5224745869636536,"14":-0.4813997447490692,"15":5.002653121948242,"16":3.8965227603912354,"17":3.5875351428985596,"18":-1.7407292127609253,"19":-2.4032959938049316,"20":0.058456551283597946,"21":0.809743344783783,"22":1.4099440574645996,"23":1.4016796350479126,"24":-0.5931073427200317}}},{"0":{"bias":-2.026487350463867,"weights":{"0":-3.3173606395721436,"1":0.2529362440109253,"2":-3.3544890880584717,"3":-1.400217890739441,"4":-2.8877153396606445,"5":1.1649786233901978,"6":2.008195161819458,"7":0.6558763980865479,"8":2.6295416355133057,"9":-4.510655879974365,"10":0.11599670350551605,"11":-5.313668251037598}},"1":{"bias":-2.4249932765960693,"weights":{"0":2.469608783721924,"1":-3.7989559173583984,"2":-3.98394513130188,"3":-3.8501241207122803,"4":2.557720184326172,"5":5.297202110290527,"6":1.1752914190292358,"7":-1.0943522453308105,"8":-3.0585622787475586,"9":-6.82244348526001,"10":0.31466665863990784,"11":0.1084379032254219}},"2":{"bias":-1.7470022439956665,"weights":{"0":2.9058749675750732,"1":-0.32263970375061035,"2":-5.87685489654541,"3":2.559868812561035,"4":-1.1258201599121094,"5":0.21165180206298828,"6":2.895463705062866,"7":-0.6773568391799927,"8":1.4247575998306274,"9":-2.6412675380706787,"10":-7.2279534339904785,"11":-0.8168651461601257}},"3":{"bias":-1.487550139427185,"weights":{"0":-3.2350552082061768,"1":-2.5171635150909424,"2":0.5436223149299622,"3":-1.8410217761993408,"4":1.1161874532699585,"5":4.874398231506348,"6":-1.52968430519104,"7":-5.394000053405762,"8":-2.4569547176361084,"9":-0.7275970578193665,"10":-3.482409715652466,"11":5.360681056976318}},"4":{"bias":-0.3929946720600128,"weights":{"0":-1.164255976676941,"1":-3.4191975593566895,"2":2.8132777214050293,"3":-1.1834936141967773,"4":-3.921863079071045,"5":-3.710418224334717,"6":-1.741466999053955,"7":-7.786760330200195,"8":-2.6218502521514893,"9":5.52142333984375,"10":2.4472508430480957,"11":-2.7553694248199463}},"5":{"bias":-2.603712558746338,"weights":{"0":-3.179953098297119,"1":2.459679365158081,"2":-0.5412725210189819,"3":3.8675553798675537,"4":-3.6306378841400146,"5":-4.633055686950684,"6":-2.74135160446167,"7":0.6322764754295349,"8":1.86166250705719,"9":1.407323956489563,"10":-1.710185170173645,"11":-2.9190635681152344}},"6":{"bias":-2.999269723892212,"weights":{"0":-1.3029165267944336,"1":-0.8192468285560608,"2":3.312546491622925,"3":-1.766922950744629,"4":3.9729814529418945,"5":-6.444869518280029,"6":-1.7684950828552246,"7":2.818453073501587,"8":-6.304044723510742,"9":3.26936936378479,"10":-2.4356400966644287,"11":-3.5786550045013428}},"7":{"bias":-1.3091613054275513,"weights":{"0":-2.542689323425293,"1":-0.5568407773971558,"2":-2.0389702320098877,"3":-1.2104331254959106,"4":6.249301433563232,"5":-5.34729528427124,"6":-1.5209531784057617,"7":0.3903876841068268,"8":-2.1115152835845947,"9":-4.828554153442383,"10":-2.171902656555176,"11":4.378574848175049}},"8":{"bias":-2.010598659515381,"weights":{"0":4.550344944000244,"1":-0.2877144515514374,"2":2.8565714359283447,"3":-1.3390686511993408,"4":-2.3444483280181885,"5":-1.1727008819580078,"6":2.5599796772003174,"7":-3.9748659133911133,"8":-2.614349603652954,"9":-4.015884876251221,"10":0.9578515291213989,"11":-2.792012929916382}},"9":{"bias":-1.09441339969635,"weights":{"0":-3.142915725708008,"1":-2.1761319637298584,"2":-5.160196304321289,"3":-3.3891844749450684,"4":-4.140491485595703,"5":0.08721233904361725,"6":-6.285134792327881,"7":1.1538925170898438,"8":5.218787670135498,"9":-4.655994892120361,"10":0.8097585439682007,"11":2.9217541217803955}},"NaN":{"bias":-0.5826934576034546,"weights":{"0":0.4286887049674988,"1":-2.9182543754577637,"2":-3.5867462158203125,"3":-5.6000657081604,"4":-5.623806953430176,"5":0.46244797110557556,"6":-2.834771156311035,"7":4.437366485595703,"8":-2.3371007442474365,"9":1.5153263807296753,"10":2.540832996368408,"11":-6.926644802093506}}}],"outputLookup":true,"inputLookup":false,"activation":"sigmoid","trainOpts":{"iterations":20000,"errorThresh":0.005,"log":false,"logPeriod":10,"learningRate":0.3,"momentum":0.1,"callbackPeriod":10,"beta1":0.9,"beta2":0.999,"epsilon":1e-8}}