{"sizes":[25,12,10],"layers":[{"0":{},"1":{},"2":{},"3":{},"4":{},"5":{},"6":{},"7":{},"8":{},"9":{},"10":{},"11":{},"12":{},"13":{},"14":{},"15":{},"16":{},"17":{},"18":{},"19":{},"20":{},"21":{},"22":{},"23":{},"24":{}},{"0":{"bias":-0.1898816078901291,"weights":{"0":-0.005723246838897467,"1":-0.6844791769981384,"2":-1.523465633392334,"3":-0.549552857875824,"4":-0.18067285418510437,"5":0.08265653997659683,"6":2.090641975402832,"7":0.3137199282646179,"8":0.2749823033809662,"9":-0.1821494698524475,"10":0.03996020182967186,"11":0.48668771982192993,"12":3.2998063564300537,"13":-0.6949635148048401,"14":0.07832655310630798,"15":-0.06468895077705383,"16":1.648189902305603,"17":0.1776546984910965,"18":-0.9207091331481934,"19":0.02520003356039524,"20":-0.09806077182292938,"21":-0.33035895228385925,"22":-0.24806015193462372,"23":-0.8289589285850525,"24":0.14659488201141357}},"1":{"bias":1.1038296222686768,"weights":{"0":-0.15427350997924805,"1":0.5816458463668823,"2":0.12667138874530792,"3":0.8209678530693054,"4":-0.08509136736392975,"5":-0.17388993501663208,"6":-2.4600107669830322,"7":0.5359132885932922,"8":0.22816169261932373,"9":0.030885247513651848,"10":0.043046098202466965,"11":-0.7481616735458374,"12":0.11940750479698181,"13":0.7573855519294739,"14":0.06276772171258926,"15":0.160883828997612,"16":-1.6391903162002563,"17":0.5090780258178711,"18":0.36793529987335205,"19":0.08011811226606369,"20":-0.14080750942230225,"21":-1.7650014162063599,"22":-0.921669065952301,"23":0.5953992605209351,"24":0.10009350627660751}},"2":{"bias":-0.46720048785209656,"weights":{"0":-0.020698407664895058,"1":-0.5074464678764343,"2":-0.9759078025817871,"3":-0.23496004939079285,"4":0.09143434464931488,"5":0.043666303157806396,"6":0.06144949793815613,"7":0.15783880650997162,"8":2.8966305255889893,"9":-0.11988276988267899,"10":0.037178635597229004,"11":0.6089125275611877,"12":1.364532709121704,"13":-0.4480602443218231,"14":0.014746305532753468,"15":-0.05665232986211777,"16":-0.3034575879573822,"17":0.09296467155218124,"18":-0.5849940180778503,"19":0.14210809767246246,"20":-0.06352800130844116,"21":0.1912626177072525,"22":0.3092572093009949,"23":-0.37777379155158997,"24":0.16192667186260223}},"3":{"bias":0.6028513312339783,"weights":{"0":-0.0870150476694107,"1":0.060616303235292435,"2":0.9342215061187744,"3":-0.1725301444530487,"4":0.12371578812599182,"5":0.01373558770865202,"6":0.19850172102451324,"7":0.6016543507575989,"8":-3.028548002243042,"9":-0.10601742565631866,"10":0.13640566170215607,"11":-0.7919356226921082,"12":0.37388336658477783,"13":-0.2448691725730896,"14":0.043091051280498505,"15":0.034681618213653564,"16":0.9396353960037231,"17":0.8459811210632324,"18":-0.09304404258728027,"19":-0.1023363247513771,"20":-0.15176542103290558,"21":-0.22227324545383453,"22":0.3705577254295349,"23":-0.22382229566574097,"24":-0.09267528355121613}},"4":{"bias":-0.3025960326194763,"weights":{"0":-0.03209111839532852,"1":0.29354798793792725,"2":-0.5392807722091675,"3":0.12439935654401779,"4":0.010568931698799133,"5":-0.025522001087665558,"6":-0.48527437448501587,"7":-0.6654013395309448,"8":1.6700657606124878,"9":0.058517541736364365,"10":-0.19469685852527618,"11":0.20379610359668732,"12":-0.6864292621612549,"13":0.40633004903793335,"14":0.051337141543626785,"15":-0.016163527965545654,"16":1.6501226425170898,"17":-0.3944603204727173,"18":-0.3898317217826843,"19":0.19844026863574982,"20":0.07397656887769699,"21":0.24310316145420074,"22":-0.4399522840976715,"23":0.35037386417388916,"24":0.11463415622711182}},"5":{"bias":1.057815432548523,"weights":{"0":0.14842094480991364,"1":0.40692293643951416,"2":1.3973523378372192,"3":0.596952497959137,"4":0.19455276429653168,"5":0.13238738477230072,"6":-2.0166494846343994,"7":0.5475786924362183,"8":-1.2572643756866455,"9":-0.1616848260164261,"10":-0.11526164412498474,"11":-1.1140180826187134,"12":-1.1530230045318604,"13":0.6146992444992065,"14":0.1065572202205658,"15":0.07410334795713425,"16":2.189206123352051,"17":0.6401826739311218,"18":-1.8011869192123413,"19":-0.04062425345182419,"20":-0.05118349939584732,"21":-0.4552319347858429,"22":0.016474556177854538,"23":0.5629839897155762,"24":-0.16774511337280273}},"6":{"bias":-0.056547924876213074,"weights":{"0":-0.183340385556221,"1":-0.11977273970842361,"2":1.0627901554107666,"3":-0.11155999451875687,"4":0.017499374225735664,"5":0.08856386691331863,"6":-1.1011059284210205,"7":0.06525886058807373,"8":-1.8384132385253906,"9":-0.12933294475078583,"10":-0.1244056299328804,"11":-0.2649613916873932,"12":1.2038257122039795,"13":-0.10550371557474136,"14":0.18596617877483368,"15":0.07432906329631805,"16":-2.402350664138794,"17":0.19268721342086792,"18":0.12788794934749603,"19":-0.19881486892700195,"20":-0.022916927933692932,"21":1.3723061084747314,"22":1.574474573135376,"23":-0.3836381137371063,"24":0.14383940398693085}},"7":{"bias":-0.0022636037319898605,"weights":{"0":0.17448630928993225,"1":0.33442366123199463,"2":-0.989465057849884,"3":0.23105189204216003,"4":0.11488903313875198,"5":0.00931551307439804,"6":0.7256020903587341,"7":-0.30116599798202515,"8":1.294336199760437,"9":0.13150084018707275,"10":-0.051344651728868484,"11":-0.13915911316871643,"12":-2.849302053451538,"13":0.5702774524688721,"14":-0.06478103250265121,"15":-0.06091471388936043,"16":0.4839097261428833,"17":-0.3900810778141022,"18":1.4541500806808472,"19":-0.09548041224479675,"20":0.15422731637954712,"21":-1.5244852304458618,"22":-1.5632323026657104,"23":0.2844744920730591,"24":-0.11644413322210312}},"8":{"bias":-0.109130859375,"weights":{"0":-0.1595546156167984,"1":0.215346097946167,"2":-0.35389333963394165,"3":0.2751629054546356,"4":0.048663292080163956,"5":0.10324830561876297,"6":2.577082872390747,"7":-0.6443443894386292,"8":-2.070314407348633,"9":-0.10872042179107666,"10":-0.02319345436990261,"11":-0.14428472518920898,"12":-1.4268485307693481,"13":0.29504817724227905,"14":0.11357644945383072,"15":-0.18542608618736267,"16":0.7402849197387695,"17":-0.6829801201820374,"18":1.470707654953003,"19":-0.09491271525621414,"20":-0.02830188348889351,"21":0.0639319196343422,"22":-0.5877743363380432,"23":0.052219945937395096,"24":-0.049380168318748474}},"9":{"bias":-0.331277996301651,"weights":{"0":-0.17168492078781128,"1":0.30489832162857056,"2":0.8635435700416565,"3":0.29921385645866394,"4":0.17452821135520935,"5":0.07179073989391327,"6":-2.248534917831421,"7":-0.6163057684898376,"8":-0.9695192575454712,"9":-0.007536732126027346,"10":-0.06842125952243805,"11":-0.16065987944602966,"12":-1.2061846256256104,"13":0.39925417304039,"14":0.02030412293970585,"15":-0.07134780287742615,"16":1.5377874374389648,"17":-0.5674185752868652,"18":-0.20369699597358704,"19":-0.17347143590450287,"20":-0.1988523304462433,"21":0.9480090141296387,"22":0.5982425808906555,"23":0.32996538281440735,"24":0.003124549286440015}},"10":{"bias":-0.048196449875831604,"weights":{"0":0.10621750354766846,"1":-0.654133677482605,"2":0.265622079372406,"3":-0.6031231880187988,"4":0.1103149801492691,"5":-0.16128450632095337,"6":1.741425633430481,"7":0.7858641147613525,"8":1.809467077255249,"9":0.043561242520809174,"10":0.031458694487810135,"11":-0.35512638092041016,"12":-0.7248049378395081,"13":-0.38382241129875183,"14":0.09866584092378616,"15":-0.011765757575631142,"16":-0.7434927225112915,"17":0.795861005783081,"18":0.15810944139957428,"19":-0.10777344554662704,"20":-0.1966688483953476,"21":-0.07248175889253616,"22":0.6749329566955566,"23":-0.5514047145843506,"24":0.024863427504897118}},"11":{"bias":0.9347464442253113,"weights":{"0":-0.048351362347602844,"1":0.4597414433956146,"2":-0.17866291105747223,"3":0.34148165583610535,"4":-0.05320215970277786,"5":-0.16956162452697754,"6":-0.5913679003715515,"7":0.5786901712417603,"8":-0.5429636240005493,"9":-0.13636262714862823,"10":0.11846250295639038,"11":-0.14227637648582458,"12":1.8014922142028809,"13":0.1652233749628067,"14":0.009288599714636803,"15":-0.003246842185035348,"16":-3.934666156768799,"17":0.81190025806427,"18":0.2972565293312073,"19":0.0492711178958416,"20":0.0031664057169109583,"21":-0.8575804233551025,"22":-0.4893410801887512,"23":0.38076481223106384,"24":-0.13310325145721436}}},{"0":{"bias":-0.5661808252334595,"weights":{"0":-2.4387075901031494,"1":-1.7476751804351807,"2":-0.964040219783783,"3":-1.3763651847839355,"4":0.7885350584983826,"5":-0.5256302952766418,"6":-1.9601017236709595,"7":1.9406301975250244,"8":1.516953945159912,"9":0.6875090003013611,"10":0.298494428396225,"11":-3.520515203475952}},"1":{"bias":-0.7199246287345886,"weights":{"0":-0.41410544514656067,"1":0.667644202709198,"2":-0.9573144912719727,"3":2.157311201095581,"4":-2.645310401916504,"5":1.0741490125656128,"6":-0.41652199625968933,"7":-1.748208999633789,"8":-2.8833117485046387,"9":-1.5346726179122925,"10":0.34255778789520264,"11":1.1887415647506714}},"2":{"bias":-0.9123193025588989,"weights":{"0":0.2711946368217468,"1":-1.186863660812378,"2":0.2708294987678528,"3":-1.167906641960144,"4":0.8665869235992432,"5":2.716365337371826,"6":-0.5420156121253967,"7":-2.0346291065216064,"8":-2.931575298309326,"9":0.861423671245575,"10":-1.7113070487976074,"11":-1.749129295349121}},"3":{"bias":-0.7689410448074341,"weights":{"0":-2.525398015975952,"1":1.3604100942611694,"2":0.4130825996398926,"3":-1.7986418008804321,"4":-0.21083948016166687,"5":-1.9074143171310425,"6":1.8191924095153809,"7":-1.4507941007614136,"8":-2.7918009757995605,"9":0.8715564608573914,"10":-1.2317781448364258,"11":0.8718212842941284}},"4":{"bias":-0.9322946667671204,"weights":{"0":1.2996888160705566,"1":0.4496423900127411,"2":0.4783467948436737,"3":-1.7121596336364746,"4":-0.2633417546749115,"5":-2.200728416442871,"6":-3.075667381286621,"7":1.4820129871368408,"8":-0.19237716495990753,"9":-2.887408494949341,"10":-0.3335007131099701,"11":0.9797871112823486}},"5":{"bias":-0.9160865545272827,"weights":{"0":-0.8329060673713684,"1":-1.0177626609802246,"2":-2.0111260414123535,"3":0.4978528320789337,"4":-2.3542888164520264,"5":-2.3871779441833496,"6":1.705392837524414,"7":-1.5628803968429565,"8":1.777441143989563,"9":-0.8294969797134399,"10":-1.2781212329864502,"11":2.0327179431915283}},"6":{"bias":-1.2804301977157593,"weights":{"0":0.972693145275116,"1":-2.393345355987549,"2":-2.282971143722534,"3":1.5851746797561646,"4":-0.5385810732841492,"5":0.3002946674823761,"6":0.4233338534832001,"7":-1.6596813201904297,"8":1.5704718828201294,"9":0.9346118569374084,"10":-1.9833282232284546,"11":-2.8293964862823486}},"7":{"bias":-0.8052764534950256,"weights":{"0":-3.541302442550659,"1":3.038086414337158,"2":-1.9762990474700928,"3":-0.4282894432544708,"4":-0.4017481803894043,"5":0.8697736263275146,"6":-1.562674641609192,"7":1.5874555110931396,"8":-0.518275797367096,"9":-0.2840960621833801,"10":-0.8973703384399414,"11":0.07088527828454971}},"8":{"bias":-0.8427958488464355,"weights":{"0":2.759861469268799,"1":-2.394589424133301,"2":1.2157177925109863,"3":-1.2340452671051025,"4":0.7911331653594971,"5":-2.246833324432373,"6":-1.5637239217758179,"7":-1.5307062864303589,"8":0.3577669858932495,"9":-0.7230241298675537,"10":0.14951485395431519,"11":-2.809366226196289}},"9":{"bias":-0.7157862782478333,"weights":{"0":0.07788801938295364,"1":-2.110642910003662,"2":1.2828521728515625,"3":-2.1520349979400635,"4":-0.5736672282218933,"5":-2.923354387283325,"6":1.282336711883545,"7":-1.6960043907165527,"8":-0.5009562373161316,"9":-2.0277867317199707,"10":1.7998559474945068,"11":0.4312543570995331}}}],"outputLookup":true,"inputLookup":false,"activation":"sigmoid","trainOpts":{"iterations":20000,"errorThresh":0.005,"log":false,"logPeriod":10,"learningRate":0.3,"momentum":0.1,"callbackPeriod":10,"beta1":0.9,"beta2":0.999,"epsilon":1e-8}}