{"sizes":[25,20,40,20,15,10,10],"layers":[{"0":{},"1":{},"2":{},"3":{},"4":{},"5":{},"6":{},"7":{},"8":{},"9":{},"10":{},"11":{},"12":{},"13":{},"14":{},"15":{},"16":{},"17":{},"18":{},"19":{},"20":{},"21":{},"22":{},"23":{},"24":{}},{"0":{"bias":-0.14244775474071503,"weights":{"0":-0.0007829807582311332,"1":-0.12283674627542496,"2":0.04152221977710724,"3":0.08473053574562073,"4":0.05155375227332115,"5":-0.0892387256026268,"6":-0.06742418557405472,"7":-0.042943358421325684,"8":0.15147845447063446,"9":0.09112340211868286,"10":0.16994136571884155,"11":-0.07004103809595108,"12":-0.1707170307636261,"13":0.1098889410495758,"14":-0.03380171209573746,"15":0.14692609012126923,"16":0.1667025238275528,"17":0.09261134266853333,"18":-0.11427130550146103,"19":-0.19552366435527802,"20":0.19879469275474548,"21":-0.10253136605024338,"22":0.1619204431772232,"23":-0.09159420430660248,"24":-0.18097898364067078}},"1":{"bias":0.06329081952571869,"weights":{"0":-0.0622372105717659,"1":0.017065655440092087,"2":-0.12853091955184937,"3":-0.030144749209284782,"4":-0.18286560475826263,"5":0.1027941033244133,"6":-0.15311002731323242,"7":-0.05856363847851753,"8":0.00476103788241744,"9":0.11433563381433487,"10":0.09017052501440048,"11":-0.1013670265674591,"12":-0.014650708995759487,"13":0.09199836105108261,"14":0.12214899063110352,"15":0.049821946769952774,"16":0.04512003809213638,"17":0.08686894178390503,"18":0.15443705022335052,"19":0.15607477724552155,"20":-0.12097057700157166,"21":0.1218288242816925,"22":0.038800664246082306,"23":0.054356835782527924,"24":0.14169816672801971}},"2":{"bias":-0.16697299480438232,"weights":{"0":0.008559131063520908,"1":0.01947278343141079,"2":-0.19591689109802246,"3":-0.05747319012880325,"4":-0.05976714938879013,"5":-0.07524341344833374,"6":0.1914154440164566,"7":0.1441049724817276,"8":-0.020678503438830376,"9":-0.16911493241786957,"10":0.13104237616062164,"11":0.07548172026872635,"12":0.18771935999393463,"13":0.0777960941195488,"14":0.023249376565217972,"15":-0.07354829460382462,"16":-0.07845117896795273,"17":-0.0030326659325510263,"18":0.10717955976724625,"19":0.17737457156181335,"20":-0.044669754803180695,"21":0.01246896293014288,"22":-0.15645581483840942,"23":-0.027119209989905357,"24":-0.018015669658780098}},"3":{"bias":0.12065158039331436,"weights":{"0":-0.008175831288099289,"1":-0.038884423673152924,"2":0.17566823959350586,"3":0.1505117118358612,"4":0.035370755940675735,"5":0.027478642761707306,"6":-0.12051200866699219,"7":0.16281720995903015,"8":-0.1062297523021698,"9":0.17764908075332642,"10":-0.10064506530761719,"11":0.18967705965042114,"12":-0.12370888143777847,"13":0.19377553462982178,"14":-0.005079473834484816,"15":-0.10164657980203629,"16":0.06527204066514969,"17":0.086139015853405,"18":0.11598823964595795,"19":-0.014737318269908428,"20":-0.08730035275220871,"21":-0.18337833881378174,"22":0.016255570575594902,"23":-0.03925519064068794,"24":-0.05243755877017975}},"4":{"bias":0.028501007705926895,"weights":{"0":-0.1727934330701828,"1":-0.07750337570905685,"2":0.14033478498458862,"3":-0.11360294371843338,"4":0.16404590010643005,"5":0.1449168175458908,"6":0.08423490077257156,"7":-0.19536298513412476,"8":-0.007540189195424318,"9":0.07722476869821548,"10":-0.12280759960412979,"11":-0.029225924983620644,"12":-0.061886005103588104,"13":-0.13639938831329346,"14":0.19851605594158173,"15":0.11685109883546829,"16":0.018123328685760498,"17":-0.1422833800315857,"18":0.019442738965153694,"19":0.12748368084430695,"20":-0.13966509699821472,"21":-0.14620742201805115,"22":0.02622114308178425,"23":0.07704327255487442,"24":-0.16235317289829254}},"5":{"bias":0.04259873181581497,"weights":{"0":0.020490795373916626,"1":-0.038343291729688644,"2":-0.07363966107368469,"3":-0.06950104981660843,"4":-0.01608293317258358,"5":0.04434245824813843,"6":0.0488138422369957,"7":-0.18833360075950623,"8":-0.14863085746765137,"9":0.0012533976696431637,"10":-0.07411833107471466,"11":-0.1938081830739975,"12":-0.189907044172287,"13":0.0381026528775692,"14":0.05526228994131088,"15":0.12316732108592987,"16":-0.18537624180316925,"17":-0.13816486299037933,"18":0.10775931179523468,"19":-0.09177514910697937,"20":-0.056711774319410324,"21":0.037650465965270996,"22":-0.02359849587082863,"23":0.03184644877910614,"24":0.11168594658374786}},"6":{"bias":0.18808670341968536,"weights":{"0":-0.0872340127825737,"1":-0.18475420773029327,"2":0.11063908040523529,"3":0.033282820135354996,"4":-0.1296696960926056,"5":-0.06365852802991867,"6":0.13490578532218933,"7":0.017741777002811432,"8":0.07847614586353302,"9":-0.0982292890548706,"10":-0.0015856478130444884,"11":-0.16079582273960114,"12":-0.15132679045200348,"13":-0.0019383300095796585,"14":-0.016022486612200737,"15":0.10351170599460602,"16":-0.017665063962340355,"17":-0.0759253054857254,"18":-0.07781826704740524,"19":-0.06438935548067093,"20":-0.12080235034227371,"21":0.11360958963632584,"22":-0.03254956007003784,"23":-0.17965348064899445,"24":0.10691793262958527}},"7":{"bias":-0.1473667174577713,"weights":{"0":-0.014350855723023415,"1":-0.1413697898387909,"2":-0.07105682045221329,"3":0.09584716707468033,"4":0.06915584951639175,"5":0.031029915437102318,"6":-0.0063323709182441235,"7":0.1458163857460022,"8":-0.005655949469655752,"9":-0.17941133677959442,"10":-0.05803469941020012,"11":0.18677657842636108,"12":-0.08023040741682053,"13":0.05720891058444977,"14":0.03758828341960907,"15":-0.06081851199269295,"16":0.06504165381193161,"17":-0.114918053150177,"18":-0.13022147119045258,"19":-0.05796588584780693,"20":0.18325069546699524,"21":-0.12372264266014099,"22":-0.01832648739218712,"23":0.015246851369738579,"24":-0.12513037025928497}},"8":{"bias":0.13120140135288239,"weights":{"0":0.19363409280776978,"1":-0.11833412200212479,"2":-0.1919519007205963,"3":-0.17926715314388275,"4":0.17815089225769043,"5":-0.008262990973889828,"6":-0.08584053814411163,"7":0.10981669276952744,"8":-0.09410303086042404,"9":0.1042575016617775,"10":-0.13120386004447937,"11":-0.10713525861501694,"12":-0.008597160689532757,"13":-0.1482512354850769,"14":0.12506282329559326,"15":0.172624409198761,"16":-0.1464708298444748,"17":0.06402193754911423,"18":-0.08655031025409698,"19":-0.07564651221036911,"20":0.05777176097035408,"21":0.1319715529680252,"22":0.11152464896440506,"23":-0.02123604342341423,"24":-0.10822045803070068}},"9":{"bias":-0.010828756727278233,"weights":{"0":0.028070298954844475,"1":-0.10699021071195602,"2":-0.04016252979636192,"3":-0.19634926319122314,"4":-0.08197144418954849,"5":0.16037338972091675,"6":0.19250628352165222,"7":-0.08987539261579514,"8":0.18688441812992096,"9":0.10677234828472137,"10":0.04382329061627388,"11":0.14763692021369934,"12":0.08049220591783524,"13":-0.005023121368139982,"14":-0.1723620891571045,"15":-0.17978814244270325,"16":0.02381894923746586,"17":-0.02327437698841095,"18":0.1754075586795807,"19":-0.17727220058441162,"20":0.09264866262674332,"21":0.18167683482170105,"22":0.1889428049325943,"23":0.006723260041326284,"24":0.10938747972249985}},"10":{"bias":0.04508562386035919,"weights":{"0":0.09488420188426971,"1":-0.17925409972667694,"2":-0.15711815655231476,"3":-0.1958020180463791,"4":-0.0868670791387558,"5":0.1232772096991539,"6":0.1754511445760727,"7":-0.18828615546226501,"8":0.023097699508070946,"9":0.19056102633476257,"10":-0.011196563020348549,"11":0.18367397785186768,"12":0.01063220389187336,"13":0.13179165124893188,"14":-0.16453221440315247,"15":0.07473733276128769,"16":0.033848293125629425,"17":0.11263470351696014,"18":0.017200151458382607,"19":0.1916092336177826,"20":-0.11056641489267349,"21":-0.052005574107170105,"22":0.16638709604740143,"23":0.1675087958574295,"24":0.13048844039440155}},"11":{"bias":-0.1397712379693985,"weights":{"0":0.01895030587911606,"1":-0.05614485591650009,"2":0.06467130780220032,"3":0.07710243761539459,"4":-0.11206488311290741,"5":-0.0575968362390995,"6":0.1528056561946869,"7":-0.05599270388484001,"8":-0.017191452905535698,"9":-0.052823569625616074,"10":-0.09813512116670609,"11":-0.13634604215621948,"12":-0.09377539902925491,"13":0.14485636353492737,"14":0.09243570268154144,"15":0.18523171544075012,"16":-0.007829799316823483,"17":0.11488395929336548,"18":-0.11574346572160721,"19":0.16040097177028656,"20":-0.0502304770052433,"21":0.1987060308456421,"22":0.009531616233289242,"23":0.19896554946899414,"24":-0.13534772396087646}},"12":{"bias":-0.17721673846244812,"weights":{"0":-0.1639643907546997,"1":0.08263338357210159,"2":-0.14001043140888214,"3":-0.04180865362286568,"4":0.046404879540205,"5":-0.1482963114976883,"6":0.08662834763526917,"7":0.18847906589508057,"8":-0.06315025687217712,"9":-0.17457681894302368,"10":-0.1727598011493683,"11":-0.0016496420139446855,"12":0.09812464565038681,"13":-0.030255703255534172,"14":0.06717164069414139,"15":-0.030394522473216057,"16":0.04029938578605652,"17":-0.12109848111867905,"18":0.10569159686565399,"19":0.029505891725420952,"20":0.17768728733062744,"21":-0.02749832719564438,"22":0.14542390406131744,"23":0.007546480279415846,"24":0.1887243539094925}},"13":{"bias":-0.1447703242301941,"weights":{"0":-0.07652296125888824,"1":-0.03699897602200508,"2":-0.1843746155500412,"3":0.15796315670013428,"4":-0.014602775685489178,"5":-0.14246365427970886,"6":0.03659449517726898,"7":0.16081568598747253,"8":-0.027348261326551437,"9":-0.04057073965668678,"10":-0.1869731843471527,"11":-0.004089924041181803,"12":-0.010772843845188618,"13":0.193216472864151,"14":0.08532649278640747,"15":0.09534168243408203,"16":-0.0866728201508522,"17":0.16960349678993225,"18":-0.16224156320095062,"19":-0.1938290148973465,"20":-0.008690622635185719,"21":-0.00819930899888277,"22":0.14141583442687988,"23":-0.14791353046894073,"24":-0.19926266372203827}},"14":{"bias":0.09516897052526474,"weights":{"0":0.11209840327501297,"1":0.03062097169458866,"2":-0.07780497521162033,"3":0.011026113294064999,"4":0.1404954493045807,"5":0.09108514338731766,"6":0.004560497123748064,"7":-0.054107505828142166,"8":-0.031084369868040085,"9":0.030246861279010773,"10":0.10216790437698364,"11":-0.17103388905525208,"12":0.005188559647649527,"13":0.0009551635594107211,"14":-0.03774213045835495,"15":0.14032989740371704,"16":-0.022827301174402237,"17":-0.12938573956489563,"18":0.1985521763563156,"19":0.03717395290732384,"20":0.16252315044403076,"21":0.11355996131896973,"22":0.13157111406326294,"23":-0.030339505523443222,"24":-0.015690909698605537}},"15":{"bias":0.0010962055530399084,"weights":{"0":0.07373102754354477,"1":0.07181669026613235,"2":0.10941583663225174,"3":-0.13655737042427063,"4":0.15053367614746094,"5":-0.13697834312915802,"6":-0.1916702687740326,"7":-0.0339197963476181,"8":0.023125411942601204,"9":-0.07194868475198746,"10":-0.07804343104362488,"11":0.0851450264453888,"12":0.018305806443095207,"13":-0.11920110136270523,"14":-0.0060942284762859344,"15":-0.0992034375667572,"16":-0.15209965407848358,"17":-0.1515236794948578,"18":0.10843183845281601,"19":-0.16880446672439575,"20":-0.02483922801911831,"21":0.14397954940795898,"22":0.11274891346693039,"23":-0.008574542589485645,"24":0.12751170992851257}},"16":{"bias":0.19592726230621338,"weights":{"0":0.0104428855702281,"1":-0.07246499508619308,"2":-0.03481283411383629,"3":-0.046048957854509354,"4":0.19516225159168243,"5":-0.14623047411441803,"6":0.17070579528808594,"7":-0.033620089292526245,"8":-0.014574702829122543,"9":0.11058615893125534,"10":-0.026427656412124634,"11":0.12117154151201248,"12":0.07339968532323837,"13":0.14923083782196045,"14":-0.15310858190059662,"15":0.03388902172446251,"16":-0.029363350942730904,"17":0.014334270730614662,"18":0.14413967728614807,"19":-0.07644724100828171,"20":-0.17416909337043762,"21":-0.10956553369760513,"22":-0.0713399276137352,"23":-0.044084060937166214,"24":-0.16585135459899902}},"17":{"bias":0.19536389410495758,"weights":{"0":0.11969517171382904,"1":-0.08895674347877502,"2":-0.1758701503276825,"3":0.11402342468500137,"4":-0.11462264508008957,"5":0.14034901559352875,"6":0.03849531710147858,"7":0.1885087788105011,"8":0.07042379677295685,"9":0.15857131779193878,"10":0.07291921973228455,"11":-0.19728834927082062,"12":0.0395260825753212,"13":-0.07733163237571716,"14":-0.1026427298784256,"15":-0.0973910242319107,"16":0.06546410918235779,"17":0.016397351399064064,"18":-0.056001074612140656,"19":-0.10351205617189407,"20":-0.011446948163211346,"21":-0.08405555039644241,"22":-0.10174630582332611,"23":-0.05352640151977539,"24":0.04244265332818031}},"18":{"bias":0.002292617689818144,"weights":{"0":-0.1860094666481018,"1":0.09198924154043198,"2":-0.1460924595594406,"3":-0.1793409138917923,"4":-0.034143101423978806,"5":0.09120835363864899,"6":-0.06565911322832108,"7":-0.10608826577663422,"8":0.042721230536699295,"9":-0.19112874567508698,"10":0.009465746581554413,"11":-0.15140573680400848,"12":-0.15735997259616852,"13":0.10266704112291336,"14":-0.08278515189886093,"15":-0.06274085491895676,"16":0.19720420241355896,"17":-0.02006250061094761,"18":0.17775097489356995,"19":0.14251315593719482,"20":-0.10097198188304901,"21":0.10131841897964478,"22":-0.15746620297431946,"23":-0.1131378635764122,"24":0.0008481347467750311}},"19":{"bias":-0.08136194199323654,"weights":{"0":0.18505236506462097,"1":-0.023311404511332512,"2":0.16679607331752777,"3":0.1235094666481018,"4":-0.08124273270368576,"5":-0.16170646250247955,"6":0.04481413960456848,"7":-0.06066122651100159,"8":0.12087336927652359,"9":0.03520813211798668,"10":0.033571138978004456,"11":0.04591210559010506,"12":-0.19002223014831543,"13":0.1109175980091095,"14":-0.10996013134717941,"15":0.11500755697488785,"16":0.039258137345314026,"17":-0.0487404502928257,"18":-0.13682423532009125,"19":-0.1169762909412384,"20":-0.1699666976928711,"21":-0.07949425280094147,"22":-0.18985198438167572,"23":0.14011628925800323,"24":0.008663766086101532}}},{"0":{"bias":0.0816284567117691,"weights":{"0":-0.09627506136894226,"1":-0.008888873271644115,"2":-0.0930904895067215,"3":0.007627022452652454,"4":0.17281962931156158,"5":0.007212360389530659,"6":0.08903292566537857,"7":-0.01878373883664608,"8":0.16765154898166656,"9":0.13461503386497498,"10":-0.07375697791576385,"11":0.09226265549659729,"12":0.16797907650470734,"13":0.1557547003030777,"14":-0.08424399793148041,"15":0.1492452323436737,"16":-0.05350181460380554,"17":-0.12317872792482376,"18":-0.1902502030134201,"19":0.017100423574447632}},"1":{"bias":0.14550431072711945,"weights":{"0":0.007203760556876659,"1":0.10324461758136749,"2":-0.1900131106376648,"3":-0.046494197100400925,"4":-0.10026402026414871,"5":0.14271534979343414,"6":0.05830525606870651,"7":-0.003369905287399888,"8":-0.14975565671920776,"9":0.18096764385700226,"10":-0.1466195434331894,"11":-0.04341365024447441,"12":-0.07920460402965546,"13":-0.03965669497847557,"14":-0.1105508953332901,"15":0.021860944107174873,"16":-0.17974627017974854,"17":-0.08427983522415161,"18":0.09760073572397232,"19":-0.028540756553411484}},"2":{"bias":-0.12268342822790146,"weights":{"0":0.09490624070167542,"1":0.007553217001259327,"2":0.04037880524992943,"3":0.10751447081565857,"4":0.18066060543060303,"5":-0.11667386442422867,"6":0.10960134863853455,"7":-0.06596071273088455,"8":0.10703611373901367,"9":-0.06568550318479538,"10":-0.15239126980304718,"11":-0.12948696315288544,"12":-0.0417223684489727,"13":0.1194048598408699,"14":-0.09037525206804276,"15":-0.1882360875606537,"16":0.124870665371418,"17":-0.03832737356424332,"18":-0.04883117973804474,"19":-0.06842335313558578}},"3":{"bias":-0.19584667682647705,"weights":{"0":-0.13793502748012543,"1":-0.0447874590754509,"2":0.022514857351779938,"3":-0.1584559977054596,"4":0.07625855505466461,"5":0.1603301614522934,"6":0.08792996406555176,"7":0.07651519030332565,"8":0.03297451138496399,"9":0.19390222430229187,"10":-0.12134173512458801,"11":0.1463758945465088,"12":-0.001820245641283691,"13":0.15697546303272247,"14":-0.02928941510617733,"15":0.07967310398817062,"16":0.017691338434815407,"17":-0.16291023790836334,"18":-0.05830654874444008,"19":0.06643389910459518}},"4":{"bias":0.19034168124198914,"weights":{"0":0.056164637207984924,"1":-0.11897275596857071,"2":0.1924697607755661,"3":-0.06962063163518906,"4":-0.17880967259407043,"5":-0.008910782635211945,"6":0.09595295786857605,"7":0.09184388816356659,"8":-0.19147714972496033,"9":-0.10996734350919724,"10":-0.1477440595626831,"11":0.18755973875522614,"12":0.09137637168169022,"13":-0.19715017080307007,"14":0.11598032712936401,"15":0.10461735725402832,"16":0.15785346925258636,"17":-0.13080762326717377,"18":-0.07476331293582916,"19":-0.0998154804110527}},"5":{"bias":0.010113987140357494,"weights":{"0":-0.19112978875637054,"1":-0.019485557451844215,"2":0.14103372395038605,"3":-0.11142444610595703,"4":0.18239721655845642,"5":0.10285090655088425,"6":0.14655672013759613,"7":-0.057964224368333817,"8":0.02763211727142334,"9":-0.18778736889362335,"10":0.10128919780254364,"11":0.05853017792105675,"12":-0.048540148884058,"13":0.10231095552444458,"14":0.0032208780758082867,"15":0.11605475097894669,"16":0.06473278999328613,"17":-0.024683555588126183,"18":0.18293260037899017,"19":-0.0415223203599453}},"6":{"bias":0.05294201523065567,"weights":{"0":-0.05333012342453003,"1":-0.18164950609207153,"2":0.1806751787662506,"3":0.1342068612575531,"4":-0.15343129634857178,"5":-0.08140850812196732,"6":-0.09851664304733276,"7":0.17374339699745178,"8":0.06439585983753204,"9":0.10254674404859543,"10":0.04562849923968315,"11":0.11163343489170074,"12":-0.13158521056175232,"13":0.1984606236219406,"14":0.004777042660862207,"15":-0.05561726540327072,"16":-0.12455170601606369,"17":0.12095065414905548,"18":0.09674306958913803,"19":-0.07102229446172714}},"7":{"bias":0.019389402121305466,"weights":{"0":0.11482557654380798,"1":0.11903201788663864,"2":-0.1581268161535263,"3":-0.0757918581366539,"4":-0.10368770360946655,"5":-0.1557018756866455,"6":-0.03919977322220802,"7":-0.07702845335006714,"8":-0.1746806800365448,"9":0.05043377727270126,"10":0.17908716201782227,"11":-0.004583016969263554,"12":0.04320992901921272,"13":-0.16638335585594177,"14":-0.016991818323731422,"15":0.17587928473949432,"16":-0.0619509294629097,"17":-0.02974819950759411,"18":-0.028296127915382385,"19":0.05179443582892418}},"8":{"bias":-0.013425629585981369,"weights":{"0":0.06727037578821182,"1":0.17807714641094208,"2":0.029718462377786636,"3":-0.10406986624002457,"4":-0.10911937057971954,"5":0.012615854851901531,"6":-0.10620088130235672,"7":0.14773714542388916,"8":-0.09705512225627899,"9":0.17331723868846893,"10":-0.11208882927894592,"11":0.19001838564872742,"12":0.16640682518482208,"13":-0.024157386273145676,"14":0.17825663089752197,"15":-0.05000792816281319,"16":0.0038542745169252157,"17":-0.06966815888881683,"18":-0.00878108013421297,"19":0.09457379579544067}},"9":{"bias":0.05817257985472679,"weights":{"0":0.1743515431880951,"1":0.01477871648967266,"2":-0.15158352255821228,"3":0.07728108763694763,"4":0.03445252403616905,"5":-0.17398229241371155,"6":0.012562723830342293,"7":-0.11587386578321457,"8":0.029709380120038986,"9":-0.10039585828781128,"10":-0.03033946268260479,"11":-0.016997849568724632,"12":-0.19703218340873718,"13":-0.03391789272427559,"14":0.023175690323114395,"15":0.19417749345302582,"16":0.13933099806308746,"17":-0.05797896534204483,"18":-0.03259957954287529,"19":0.18433965742588043}},"10":{"bias":0.1617651730775833,"weights":{"0":-0.15611103177070618,"1":0.10831164568662643,"2":-0.056326039135456085,"3":0.05824178457260132,"4":-0.024985354393720627,"5":0.11501310020685196,"6":-0.03242816776037216,"7":0.07191172987222672,"8":0.12514790892601013,"9":-0.04287866875529289,"10":0.00799759291112423,"11":0.1643018126487732,"12":0.17961347103118896,"13":-0.20172521471977234,"14":0.01134162675589323,"15":0.08391459286212921,"16":-0.19620300829410553,"17":0.17100940644741058,"18":0.06734073907136917,"19":0.00120155222248286}},"11":{"bias":0.15901406109333038,"weights":{"0":0.059239208698272705,"1":-0.1281886100769043,"2":-0.15137037634849548,"3":-0.1876894235610962,"4":-0.14921912550926208,"5":0.04427502304315567,"6":-0.10622578114271164,"7":0.05245513841509819,"8":0.14149209856987,"9":-0.003672710619866848,"10":-0.09420938789844513,"11":-0.1771228313446045,"12":-0.06621869653463364,"13":-0.18922097980976105,"14":-0.15604716539382935,"15":-0.1042429581284523,"16":-0.1340833306312561,"17":0.19792933762073517,"18":0.19489935040473938,"19":0.02253652550280094}},"12":{"bias":-0.1760837584733963,"weights":{"0":0.09506042301654816,"1":0.17354966700077057,"2":-0.016882745549082756,"3":0.0911329910159111,"4":0.061782676726579666,"5":-0.040979333221912384,"6":0.029544953256845474,"7":-0.09772082418203354,"8":0.019742319360375404,"9":0.0505155585706234,"10":0.07313095033168793,"11":0.1674818992614746,"12":-0.1453215330839157,"13":-0.16701504588127136,"14":0.18982599675655365,"15":0.025158623233437538,"16":0.049213070422410965,"17":0.16421160101890564,"18":-0.054541464895009995,"19":0.001528158551082015}},"13":{"bias":0.07045509666204453,"weights":{"0":0.026180274784564972,"1":-0.09734188765287399,"2":-0.04762202873826027,"3":0.07283829152584076,"4":-0.1914883852005005,"5":0.13256429135799408,"6":-0.19377321004867554,"7":-0.09083288908004761,"8":-0.06303782016038895,"9":-0.17137150466442108,"10":0.16993096470832825,"11":0.021565742790699005,"12":0.0927404835820198,"13":0.10240702331066132,"14":-0.12090422213077545,"15":0.03951878100633621,"16":0.00568613363429904,"17":0.09873504191637039,"18":-0.010275338776409626,"19":0.06594472378492355}},"14":{"bias":0.11863569170236588,"weights":{"0":0.16095292568206787,"1":0.09915096312761307,"2":-0.015785271301865578,"3":0.14240287244319916,"4":0.010917111299932003,"5":-0.0946284681558609,"6":0.10612089931964874,"7":0.12657430768013,"8":0.10427507013082504,"9":0.11314928531646729,"10":-0.05087929591536522,"11":-0.09876441955566406,"12":0.052716050297021866,"13":0.10419975966215134,"14":0.1773741990327835,"15":0.1454082876443863,"16":-0.14243854582309723,"17":-0.14406514167785645,"18":0.19502905011177063,"19":-0.07567200064659119}},"15":{"bias":0.10752013325691223,"weights":{"0":-0.185535728931427,"1":0.19799329340457916,"2":-0.06384260207414627,"3":0.16248439252376556,"4":-0.0021009808406233788,"5":-0.03291257098317146,"6":-0.13439099490642548,"7":0.09038162976503372,"8":0.028305290266871452,"9":0.0068195890635252,"10":0.08604676276445389,"11":0.046917207539081573,"12":0.09634237736463547,"13":0.07410237193107605,"14":-0.06510671228170395,"15":0.0836489126086235,"16":-0.053229425102472305,"17":-0.06273190677165985,"18":-0.14358487725257874,"19":0.0811079815030098}},"16":{"bias":-0.19067052006721497,"weights":{"0":0.13300380110740662,"1":-0.16241362690925598,"2":-0.02783977799117565,"3":-0.1842038482427597,"4":-0.13480502367019653,"5":0.13477936387062073,"6":-0.1244107335805893,"7":-0.05703258886933327,"8":0.05016340687870979,"9":-0.05672917887568474,"10":-0.13829298317432404,"11":0.1932825744152069,"12":-0.06122712790966034,"13":-0.04720918834209442,"14":0.1493764966726303,"15":0.17449277639389038,"16":-0.04989524185657501,"17":-0.13148881494998932,"18":0.1302538961172104,"19":-0.18989387154579163}},"17":{"bias":-0.021528983488678932,"weights":{"0":0.196679025888443,"1":-0.0675763264298439,"2":0.001270193257369101,"3":-0.04963269457221031,"4":-0.18676011264324188,"5":-0.19857360422611237,"6":0.18778155744075775,"7":0.17016728222370148,"8":0.15589474141597748,"9":0.1592601239681244,"10":0.06949175149202347,"11":0.14160121977329254,"12":-0.1808234006166458,"13":0.0399310328066349,"14":0.10847368836402893,"15":-0.0203838013112545,"16":0.062010228633880615,"17":0.14752866327762604,"18":0.061405815184116364,"19":-0.028813840821385384}},"18":{"bias":0.029763666912913322,"weights":{"0":-0.10541192442178726,"1":0.09109460562467575,"2":0.09285202622413635,"3":-0.052970703691244125,"4":-0.1840599626302719,"5":0.0954643115401268,"6":-0.0832538977265358,"7":-0.14140258729457855,"8":0.1666346937417984,"9":-0.01872165873646736,"10":-0.11741293966770172,"11":0.01533896941691637,"12":0.17150168120861053,"13":0.18612995743751526,"14":-0.18438830971717834,"15":0.039219923317432404,"16":-0.08131163567304611,"17":0.009437636472284794,"18":0.12425467371940613,"19":0.11830805242061615}},"19":{"bias":0.08958844095468521,"weights":{"0":0.05564948916435242,"1":0.13975664973258972,"2":0.01284756325185299,"3":0.01069843489676714,"4":-0.10341044515371323,"5":-0.10832078009843826,"6":0.0948236733675003,"7":-0.1040642261505127,"8":0.12299259006977081,"9":0.06591236591339111,"10":-0.045034848153591156,"11":-0.08706817030906677,"12":0.15110881626605988,"13":-0.18822430074214935,"14":-0.011591024696826935,"15":-0.02834749035537243,"16":0.1307210922241211,"17":-0.047998324036598206,"18":-0.10800142586231232,"19":0.04134272783994675}},"20":{"bias":0.06337776780128479,"weights":{"0":-0.037851620465517044,"1":-0.16993121802806854,"2":-0.05583500489592552,"3":-0.13344737887382507,"4":0.15329201519489288,"5":-0.05999154597520828,"6":0.09236638247966766,"7":0.0222919974476099,"8":0.06857100129127502,"9":-0.14620883762836456,"10":-0.09835074096918106,"11":0.10969095677137375,"12":-0.11474431306123734,"13":0.07577256858348846,"14":0.12407273799180984,"15":0.1206192746758461,"16":0.153992161154747,"17":0.06205983832478523,"18":0.08805927634239197,"19":-0.1869296431541443}},"21":{"bias":-0.18066886067390442,"weights":{"0":-0.005350958555936813,"1":0.021385738626122475,"2":0.11366911232471466,"3":0.025904860347509384,"4":0.05023880675435066,"5":0.09774340689182281,"6":0.01454031653702259,"7":0.06417375802993774,"8":0.06111661717295647,"9":-0.037075843662023544,"10":0.1592695713043213,"11":0.06455973535776138,"12":-0.09007791429758072,"13":-0.17386001348495483,"14":-0.14534665644168854,"15":-0.1448204517364502,"16":-0.025952082127332687,"17":-0.09546658396720886,"18":-0.012755344621837139,"19":-0.04067571461200714}},"22":{"bias":-0.051971185952425,"weights":{"0":0.05341320484876633,"1":0.16100749373435974,"2":0.1515381783246994,"3":0.09859969466924667,"4":-0.02402617037296295,"5":0.09267031401395798,"6":0.12895163893699646,"7":0.14635765552520752,"8":0.05264890566468239,"9":-0.1506660431623459,"10":0.07223271578550339,"11":0.09035295248031616,"12":0.13691475987434387,"13":0.09923700243234634,"14":0.07931781560182571,"15":-0.0831756591796875,"16":0.005041411146521568,"17":-0.055231016129255295,"18":-0.06262733787298203,"19":0.13100925087928772}},"23":{"bias":0.1635262668132782,"weights":{"0":0.18730442225933075,"1":-0.03085198812186718,"2":-0.022577235475182533,"3":0.06303127110004425,"4":0.031160766258835793,"5":0.00011710502440109849,"6":0.039609409868717194,"7":0.057616762816905975,"8":0.2002243846654892,"9":-0.15006330609321594,"10":0.08779451251029968,"11":0.19108611345291138,"12":0.14625315368175507,"13":0.06250399351119995,"14":-0.03823872655630112,"15":-0.16114301979541779,"16":0.17642445862293243,"17":-0.06909654289484024,"18":-0.08274289220571518,"19":0.1744433045387268}},"24":{"bias":-0.15914107859134674,"weights":{"0":0.15886814892292023,"1":-0.16207779943943024,"2":0.06953246146440506,"3":0.10239885002374649,"4":-0.026842517778277397,"5":0.01996261440217495,"6":-0.17932629585266113,"7":0.01648721657693386,"8":0.15667545795440674,"9":0.10625401884317398,"10":0.016525404527783394,"11":0.20035873353481293,"12":0.13928169012069702,"13":0.11033407598733902,"14":-0.06214148923754692,"15":-0.11891018599271774,"16":-0.14648319780826569,"17":-0.14960092306137085,"18":0.0627923384308815,"19":0.18484407663345337}},"25":{"bias":0.08496429771184921,"weights":{"0":0.10857797414064407,"1":-0.18211962282657623,"2":0.08812201023101807,"3":-0.09749814122915268,"4":0.018580524250864983,"5":0.04156484454870224,"6":0.192719504237175,"7":0.18075823783874512,"8":-0.101275235414505,"9":0.001671650679782033,"10":-0.019532395526766777,"11":-0.16245774924755096,"12":-0.18720711767673492,"13":-0.0339936763048172,"14":0.026683514937758446,"15":-0.031209882348775864,"16":0.14612622559070587,"17":0.14851640164852142,"18":0.08616451919078827,"19":0.148206889629364}},"26":{"bias":0.016413243487477303,"weights":{"0":-0.060511864721775055,"1":0.14404797554016113,"2":-0.03090851753950119,"3":0.18572446703910828,"4":0.049384478479623795,"5":0.014264552854001522,"6":-0.09765248000621796,"7":0.019053269177675247,"8":-0.19521763920783997,"9":0.061781276017427444,"10":-0.05247130244970322,"11":0.19273091852664948,"12":-0.11769337952136993,"13":-0.004809212870895863,"14":-0.08479119837284088,"15":-0.14723894000053406,"16":-0.10701093822717667,"17":-0.009704519994556904,"18":0.19659753143787384,"19":-0.19576579332351685}},"27":{"bias":-0.16664019227027893,"weights":{"0":-0.08697773516178131,"1":-0.19098632037639618,"2":0.10299448668956757,"3":-0.05704618990421295,"4":-0.0037066726945340633,"5":0.16165560483932495,"6":0.004992577247321606,"7":-0.057953622192144394,"8":-0.12329940497875214,"9":-0.1328429877758026,"10":0.09295069426298141,"11":0.08440481126308441,"12":0.15447933971881866,"13":0.008216926828026772,"14":-0.09976878762245178,"15":0.14011353254318237,"16":0.1839425414800644,"17":0.1994447559118271,"18":-0.1640825718641281,"19":-0.09026686102151871}},"28":{"bias":-0.17016249895095825,"weights":{"0":0.05733788385987282,"1":0.14630579948425293,"2":-0.1861235499382019,"3":-0.15103374421596527,"4":0.16012327373027802,"5":0.08991354703903198,"6":0.05955680459737778,"7":0.1033238098025322,"8":0.18253694474697113,"9":-0.07038848847150803,"10":0.1105383038520813,"11":0.19162748754024506,"12":-0.06660284847021103,"13":0.13364781439304352,"14":0.17989753186702728,"15":-0.09942261129617691,"16":0.06461676955223083,"17":-0.1473701149225235,"18":0.1448001265525818,"19":0.07293730229139328}},"29":{"bias":-0.06093933433294296,"weights":{"0":0.1910330057144165,"1":0.0344940647482872,"2":-0.18468442559242249,"3":-0.09518451988697052,"4":-0.19944070279598236,"5":0.15123231709003448,"6":-0.1479903757572174,"7":0.08195462822914124,"8":0.08307190239429474,"9":0.009619444608688354,"10":0.1449597179889679,"11":0.1909116506576538,"12":-0.12880434095859528,"13":-0.007912591099739075,"14":-0.1651085913181305,"15":0.07813248038291931,"16":-0.11847008764743805,"17":-0.18214261531829834,"18":-0.16515812277793884,"19":-0.010043885558843613}},"30":{"bias":-0.11003601551055908,"weights":{"0":-0.09629254788160324,"1":-0.0408092737197876,"2":0.10361567884683609,"3":-0.13882790505886078,"4":0.01677612215280533,"5":-0.1163119375705719,"6":0.09104953706264496,"7":-0.12285973876714706,"8":0.08496465533971786,"9":-0.12737110257148743,"10":0.11877614259719849,"11":0.12069139629602432,"12":-0.1148904487490654,"13":0.18081820011138916,"14":-0.08889002352952957,"15":-0.03716666251420975,"16":-0.0970933735370636,"17":-0.03241852670907974,"18":0.05013775825500488,"19":0.07953967899084091}},"31":{"bias":0.08496402204036713,"weights":{"0":-0.15473639965057373,"1":0.0657087191939354,"2":0.12160677462816238,"3":0.190151184797287,"4":-0.05220160633325577,"5":-0.10421229153871536,"6":0.0856453999876976,"7":-0.12092827260494232,"8":0.1183701753616333,"9":0.12515242397785187,"10":-0.18295112252235413,"11":-0.0853101834654808,"12":-0.08653540164232254,"13":-0.04768892005085945,"14":0.050656143575906754,"15":-0.006322245113551617,"16":0.197362020611763,"17":-0.10754256695508957,"18":0.15349194407463074,"19":-0.011388902552425861}},"32":{"bias":0.05625282973051071,"weights":{"0":0.03680265322327614,"1":0.11574838310480118,"2":0.014528327621519566,"3":0.030237089842557907,"4":-0.02157680131494999,"5":0.07642661780118942,"6":0.09922328591346741,"7":0.1321871280670166,"8":0.15296229720115662,"9":0.10112842172384262,"10":0.05173884332180023,"11":-0.10786177963018417,"12":0.05945375934243202,"13":-0.13923297822475433,"14":0.057016052305698395,"15":0.06039347127079964,"16":-0.08377682417631149,"17":0.07363595813512802,"18":-0.08698657900094986,"19":-0.08661907911300659}},"33":{"bias":0.13825036585330963,"weights":{"0":0.16592589020729065,"1":-0.17747585475444794,"2":0.08327408134937286,"3":-0.14367268979549408,"4":0.03931209817528725,"5":-0.13007710874080658,"6":-0.07273095846176147,"7":0.04747892916202545,"8":-0.16690437495708466,"9":-0.05227246135473251,"10":0.1605917066335678,"11":-0.059867050498723984,"12":-0.10339496284723282,"13":0.04424620792269707,"14":0.14094632863998413,"15":0.1267205774784088,"16":0.044207099825143814,"17":-0.03428877517580986,"18":-0.14424969255924225,"19":0.11953366547822952}},"34":{"bias":-0.11161419004201889,"weights":{"0":0.04951895400881767,"1":0.1619342863559723,"2":0.13510197401046753,"3":0.04733673855662346,"4":-0.02702626772224903,"5":-0.12537062168121338,"6":0.10973796248435974,"7":-0.12425782531499863,"8":-0.07392235845327377,"9":-0.09214168041944504,"10":0.13860948383808136,"11":-0.022553149610757828,"12":-0.06912801414728165,"13":0.02167537994682789,"14":-0.014464093372225761,"15":0.12495734542608261,"16":0.030993258580565453,"17":-0.18515925109386444,"18":0.16912247240543365,"19":0.16866958141326904}},"35":{"bias":0.09253676235675812,"weights":{"0":0.13663187623023987,"1":-0.0424342155456543,"2":-0.05742098018527031,"3":0.04340047389268875,"4":0.17970240116119385,"5":-0.12154459208250046,"6":0.16350014507770538,"7":-0.14789770543575287,"8":0.005905465222895145,"9":-0.12939196825027466,"10":0.0891440212726593,"11":-0.08647193014621735,"12":-0.0921049565076828,"13":0.13236884772777557,"14":-0.17467938363552094,"15":-0.07102703303098679,"16":0.0761164054274559,"17":0.18465732038021088,"18":0.036412253975868225,"19":-0.053750764578580856}},"36":{"bias":0.05228074640035629,"weights":{"0":0.012049178592860699,"1":-0.10252134501934052,"2":0.15908750891685486,"3":0.05665987357497215,"4":-0.09254466742277145,"5":-0.021897319704294205,"6":0.09511873126029968,"7":0.010938712395727634,"8":-0.12781444191932678,"9":0.15981411933898926,"10":0.09265563637018204,"11":-0.16602301597595215,"12":0.017498698085546494,"13":0.09874017536640167,"14":-0.06789550185203552,"15":0.17385095357894897,"16":0.11086376756429672,"17":-0.02082591876387596,"18":0.03584904223680496,"19":-0.0404914990067482}},"37":{"bias":-0.06584489345550537,"weights":{"0":-0.11674369126558304,"1":0.12612423300743103,"2":0.18995033204555511,"3":0.19003641605377197,"4":-0.16994144022464752,"5":-0.1956653594970703,"6":0.02259165607392788,"7":0.07652939110994339,"8":0.19669802486896515,"9":-0.12081378698348999,"10":-0.19680362939834595,"11":0.17935988306999207,"12":0.18766367435455322,"13":-0.04966667294502258,"14":0.05527922883629799,"15":-0.01256285235285759,"16":0.09791800379753113,"17":0.1916521042585373,"18":0.05776340514421463,"19":-0.1670924574136734}},"38":{"bias":0.1281694769859314,"weights":{"0":-0.049602311104536057,"1":-0.16398809850215912,"2":-0.02448827400803566,"3":0.02919507771730423,"4":0.16722874343395233,"5":0.20037324726581573,"6":-0.09416573494672775,"7":0.05621716007590294,"8":0.11673834919929504,"9":0.19190248847007751,"10":-0.1976109892129898,"11":-0.11303200572729111,"12":0.1369221806526184,"13":0.1420237272977829,"14":-0.08138435333967209,"15":0.17087796330451965,"16":0.09418538957834244,"17":-0.06637068837881088,"18":0.09392557293176651,"19":0.12866166234016418}},"39":{"bias":-0.13694587349891663,"weights":{"0":-0.08483242243528366,"1":-0.026479795575141907,"2":0.0745396837592125,"3":-0.07568538933992386,"4":-0.18760322034358978,"5":0.18084196746349335,"6":0.12822487950325012,"7":0.13042613863945007,"8":-0.17570768296718597,"9":-0.012602872215211391,"10":-0.02063966728746891,"11":-0.16531908512115479,"12":-0.14917759597301483,"13":-0.056582286953926086,"14":0.007031502202153206,"15":0.034106358885765076,"16":0.012673971243202686,"17":0.19473595917224884,"18":0.031224437057971954,"19":0.06967608630657196}}},{"0":{"bias":-0.1733228713274002,"weights":{"0":0.058282483369112015,"1":0.022474218159914017,"2":0.043066300451755524,"3":-0.002185951918363571,"4":0.14891564846038818,"5":0.01744542457163334,"6":0.15086673200130463,"7":0.1743750125169754,"8":0.13622334599494934,"9":-0.15686480700969696,"10":0.19508802890777588,"11":0.16481895744800568,"12":0.0009218499762937427,"13":-0.14439232647418976,"14":0.17508412897586823,"15":0.16789975762367249,"16":0.0630265474319458,"17":-0.12527792155742645,"18":-0.14569619297981262,"19":-0.18643775582313538,"20":0.18455591797828674,"21":-0.05900099128484726,"22":-0.08831295371055603,"23":-0.02787184715270996,"24":-0.05312969908118248,"25":-0.1815778911113739,"26":0.04079132527112961,"27":0.12860651314258575,"28":0.16425926983356476,"29":-0.02543080970644951,"30":0.0281954538077116,"31":0.13705508410930634,"32":-0.07253853231668472,"33":-0.06581178307533264,"34":0.15407417714595795,"35":-0.1495746523141861,"36":0.18823419511318207,"37":-0.18702073395252228,"38":-0.2032604217529297,"39":-0.13811983168125153}},"1":{"bias":-0.17619338631629944,"weights":{"0":0.11124032735824585,"1":-0.10043445229530334,"2":0.0511837862432003,"3":0.11278553307056427,"4":-0.13991694152355194,"5":0.09383778274059296,"6":-0.07789402455091476,"7":-0.03633662685751915,"8":0.05291884392499924,"9":0.17511332035064697,"10":-0.06894861161708832,"11":0.10124032944440842,"12":0.027729971334338188,"13":0.0061345174908638,"14":0.011533170007169247,"15":-0.022438593208789825,"16":-0.055577099323272705,"17":-0.15615525841712952,"18":-0.17122288048267365,"19":-0.12522561848163605,"20":0.13192827999591827,"21":-0.078728586435318,"22":0.05646797642111778,"23":0.0685274600982666,"24":-0.13927845656871796,"25":-0.1408877968788147,"26":-0.1344897300004959,"27":-0.010360305197536945,"28":-0.00144188420381397,"29":-0.03018271178007126,"30":0.028760647401213646,"31":-0.050626013427972794,"32":-0.008762013167142868,"33":0.06299441307783127,"34":0.07614549994468689,"35":-0.11003157496452332,"36":0.05705580115318298,"37":-0.1517685353755951,"38":-0.1052316427230835,"39":0.19971346855163574}},"2":{"bias":0.08888241648674011,"weights":{"0":-0.009196275845170021,"1":-0.0002756778267212212,"2":0.017611084505915642,"3":0.059191931039094925,"4":-0.10861428081989288,"5":0.12884539365768433,"6":0.12130973488092422,"7":0.13889148831367493,"8":-0.06938841938972473,"9":-0.17238368093967438,"10":-0.14966441690921783,"11":0.018634170293807983,"12":0.14469747245311737,"13":0.03953048586845398,"14":-0.13752740621566772,"15":-0.1415795385837555,"16":0.187648743391037,"17":0.03615950420498848,"18":0.21356458961963654,"19":0.017733421176671982,"20":0.13203898072242737,"21":0.207266166806221,"22":0.06558990478515625,"23":-0.048992618918418884,"24":-0.10505625605583191,"25":0.11802006512880325,"26":0.07749582082033157,"27":0.1449424922466278,"28":-0.12636566162109375,"29":-0.02004946768283844,"30":0.05937477573752403,"31":0.11361028999090195,"32":0.09966450929641724,"33":0.10505800694227219,"34":0.09126836061477661,"35":0.08459418267011642,"36":0.18788577616214752,"37":0.13697107136249542,"38":0.13050690293312073,"39":0.16485771536827087}},"3":{"bias":0.13132141530513763,"weights":{"0":-0.048903170973062515,"1":-0.16541224718093872,"2":0.17148303985595703,"3":-0.006708301603794098,"4":0.2121923267841339,"5":-0.08326319605112076,"6":0.19105400145053864,"7":-0.14591458439826965,"8":-0.09411903470754623,"9":-0.03698381036520004,"10":-0.06863053888082504,"11":0.04550107941031456,"12":0.16739770770072937,"13":0.048406753689050674,"14":0.12410806864500046,"15":-0.16247670352458954,"16":-0.026541447266936302,"17":0.08371550589799881,"18":-0.03010137751698494,"19":-0.1647474765777588,"20":-0.06841587275266647,"21":0.16150283813476562,"22":0.14492525160312653,"23":0.0809885635972023,"24":0.05216499790549278,"25":-0.014079900458455086,"26":-0.15678760409355164,"27":0.10242654383182526,"28":0.041489724069833755,"29":-0.03853309899568558,"30":0.07918445020914078,"31":-0.1712801158428192,"32":-0.027048297226428986,"33":0.16247384250164032,"34":-0.06851023435592651,"35":-0.0026367714162915945,"36":-0.13936872780323029,"37":0.20179982483386993,"38":0.18287019431591034,"39":-0.13074932992458344}},"4":{"bias":-0.0989261195063591,"weights":{"0":-0.13740085065364838,"1":-0.08447058498859406,"2":0.06959346681833267,"3":-0.013137740083038807,"4":0.08147228509187698,"5":0.08547627180814743,"6":0.20625528693199158,"7":-0.07723649591207504,"8":0.2129458636045456,"9":-0.020610501989722252,"10":0.20486868917942047,"11":-0.049609243869781494,"12":-0.04968712478876114,"13":0.09795805811882019,"14":0.21342682838439941,"15":0.1772173047065735,"16":0.1538097858428955,"17":0.2025620937347412,"18":-0.15625794231891632,"19":0.21346992254257202,"20":-0.16558243334293365,"21":-0.05968842655420303,"22":0.20146620273590088,"23":-0.002753090811893344,"24":0.1028599664568901,"25":0.21570493280887604,"26":-0.14163891971111298,"27":-0.03298301622271538,"28":-0.10095494985580444,"29":0.09880588203668594,"30":-0.08496702462434769,"31":0.09614367038011551,"32":-0.16616830229759216,"33":0.20013849437236786,"34":0.06801634281873703,"35":0.10173294693231583,"36":0.13450902700424194,"37":0.028454991057515144,"38":-0.13523073494434357,"39":0.19893044233322144}},"5":{"bias":0.017829326912760735,"weights":{"0":-0.0036695571616292,"1":0.13675549626350403,"2":-0.0699997991323471,"3":0.0763157308101654,"4":-0.14996248483657837,"5":-0.10562289506196976,"6":-0.058193229138851166,"7":-0.06774724274873734,"8":0.10831839591264725,"9":0.16219040751457214,"10":-0.10890928655862808,"11":-0.1449008285999298,"12":-0.04034658893942833,"13":0.0272666048258543,"14":-0.159072145819664,"15":0.21459445357322693,"16":0.1958916336297989,"17":-0.16923904418945312,"18":0.07992763072252274,"19":-0.06059625372290611,"20":0.0036439630202949047,"21":0.16084548830986023,"22":0.1539050191640854,"23":0.1092446818947792,"24":0.15609769523143768,"25":0.043515387922525406,"26":0.01787472888827324,"27":0.14235572516918182,"28":0.13548816740512848,"29":-0.08213107287883759,"30":0.02885889820754528,"31":0.14143404364585876,"32":0.03461700677871704,"33":0.17240674793720245,"34":-0.04004064202308655,"35":-0.05380033329129219,"36":-0.058038875460624695,"37":0.03626798465847969,"38":-0.17427954077720642,"39":0.09857498109340668}},"6":{"bias":0.08928386867046356,"weights":{"0":0.1117430031299591,"1":0.003016152884811163,"2":0.03230009600520134,"3":-0.034019339829683304,"4":0.0010490668937563896,"5":0.06228327751159668,"6":0.11720709502696991,"7":0.18537671864032745,"8":-0.08771057426929474,"9":0.04624277353286743,"10":0.1764586865901947,"11":0.1908416897058487,"12":-0.01788649521768093,"13":-0.13950103521347046,"14":0.09461100399494171,"15":-0.14934520423412323,"16":-0.1204548254609108,"17":-0.04278574883937836,"18":0.05943477898836136,"19":0.014651329256594181,"20":-0.09915949404239655,"21":0.047815997153520584,"22":0.13214531540870667,"23":0.09551040828227997,"24":0.2000710517168045,"25":-0.1495617777109146,"26":-0.10952708125114441,"27":0.05767375975847244,"28":0.1845904290676117,"29":0.18052206933498383,"30":0.05868661776185036,"31":0.03384476900100708,"32":0.18708764016628265,"33":-0.011230560019612312,"34":0.08312768489122391,"35":-0.12668979167938232,"36":-0.12384502589702606,"37":0.1680409163236618,"38":0.2021453082561493,"39":0.19550275802612305}},"7":{"bias":-0.0004366456705611199,"weights":{"0":-0.16076985001564026,"1":0.07762746512889862,"2":-0.017480121925473213,"3":0.02064662240445614,"4":-0.14239639043807983,"5":-0.16910101473331451,"6":0.1338312178850174,"7":-0.02583550475537777,"8":0.18762250244617462,"9":-0.04106276482343674,"10":0.07097523659467697,"11":0.04857925698161125,"12":-0.05840377137064934,"13":0.15381363034248352,"14":-0.011251061223447323,"15":-0.08735357969999313,"16":-0.08759928494691849,"17":0.1207379475235939,"18":0.003698239801451564,"19":0.18028704822063446,"20":0.20505866408348083,"21":-0.06271526217460632,"22":0.07362567633390427,"23":0.008002156391739845,"24":0.09144942462444305,"25":0.0347290076315403,"26":0.16430313885211945,"27":0.0018390995683148503,"28":0.03336118161678314,"29":-0.02493639662861824,"30":0.011766273528337479,"31":0.029980935156345367,"32":-0.032329704612493515,"33":0.1832645982503891,"34":0.008126354776322842,"35":0.06526988744735718,"36":-0.09986882656812668,"37":0.19705238938331604,"38":0.21705761551856995,"39":-0.025373615324497223}},"8":{"bias":0.19448469579219818,"weights":{"0":-0.056216828525066376,"1":-0.10026809573173523,"2":0.051766958087682724,"3":-0.038225624710321426,"4":-0.05836142972111702,"5":-0.11912121623754501,"6":0.017852840945124626,"7":0.07381194829940796,"8":0.15578658878803253,"9":-0.1431279182434082,"10":-0.0768507868051529,"11":-0.034438420087099075,"12":-0.09590310603380203,"13":0.1799175888299942,"14":-0.13975216448307037,"15":0.05992336943745613,"16":-0.1268429160118103,"17":0.21435004472732544,"18":-0.18289299309253693,"19":0.03464288264513016,"20":0.07505595684051514,"21":0.20936526358127594,"22":0.21613430976867676,"23":0.1953405737876892,"24":-0.08420181274414062,"25":-0.06382536143064499,"26":0.06080523133277893,"27":0.21405626833438873,"28":-0.07268203049898148,"29":0.11714771389961243,"30":-0.1669456511735916,"31":-0.00334742059931159,"32":-0.14892065525054932,"33":-0.012258462607860565,"34":0.08600205183029175,"35":-0.09231302887201309,"36":-0.17354716360569,"37":-0.17195281386375427,"38":-0.1675173044204712,"39":0.13411417603492737}},"9":{"bias":0.03714148327708244,"weights":{"0":0.14657656848430634,"1":-0.08494824916124344,"2":0.17688368260860443,"3":-0.08118826150894165,"4":0.006066190078854561,"5":-0.08481296896934509,"6":-0.14503829181194305,"7":0.11350055038928986,"8":-0.09050546586513519,"9":0.17946025729179382,"10":0.1418173611164093,"11":-0.05557597056031227,"12":0.07789730280637741,"13":-0.10889209061861038,"14":0.054847706109285355,"15":0.13455359637737274,"16":0.08900870382785797,"17":0.023242609575390816,"18":-0.08809063583612442,"19":-0.14232994616031647,"20":-0.15951384603977203,"21":-0.18381625413894653,"22":-0.10035068541765213,"23":0.1600077599287033,"24":-0.078057199716568,"25":-0.12634292244911194,"26":-0.06977079808712006,"27":0.1691824048757553,"28":0.12446781992912292,"29":0.10076215118169785,"30":0.07327178120613098,"31":0.016271406784653664,"32":0.02493608184158802,"33":-0.16361160576343536,"34":-0.198311448097229,"35":0.18717005848884583,"36":0.004420336335897446,"37":0.12008628994226456,"38":0.07943961024284363,"39":0.014072786085307598}},"10":{"bias":-0.06221059337258339,"weights":{"0":0.011463466100394726,"1":-0.05894478037953377,"2":0.07746873050928116,"3":-0.10551413893699646,"4":-0.014541257172822952,"5":-0.11497438699007034,"6":-0.036229103803634644,"7":-0.16179832816123962,"8":0.05752866342663765,"9":0.11334074288606644,"10":-0.033658843487501144,"11":-0.12600111961364746,"12":-0.17993861436843872,"13":-0.06907293945550919,"14":0.0953952819108963,"15":-0.06095604971051216,"16":0.005331892054527998,"17":0.14299817383289337,"18":-0.10252732783555984,"19":0.13638174533843994,"20":-0.10172397643327713,"21":-0.08926904946565628,"22":-0.11364684253931046,"23":0.14984416961669922,"24":0.1868482530117035,"25":0.20171847939491272,"26":-0.02762473002076149,"27":0.13001978397369385,"28":-0.02404521405696869,"29":-0.09466318041086197,"30":-0.07813811302185059,"31":0.14632104337215424,"32":-0.012896308675408363,"33":-0.07155822217464447,"34":0.08612345904111862,"35":0.10514119267463684,"36":0.1368451565504074,"37":0.01364086288958788,"38":0.11834054440259933,"39":0.010702535510063171}},"11":{"bias":0.16682131588459015,"weights":{"0":0.0896545946598053,"1":0.08162783831357956,"2":0.005384620279073715,"3":-0.1579214185476303,"4":0.020917905494570732,"5":0.0099286288022995,"6":-0.10384763032197952,"7":-0.12115716189146042,"8":0.15192940831184387,"9":0.018006062135100365,"10":-0.044774461537599564,"11":-0.03129866346716881,"12":-0.08891525119543076,"13":0.18690285086631775,"14":0.21699383854866028,"15":0.02080950327217579,"16":-0.14315660297870636,"17":0.07660634070634842,"18":-0.008105791173875332,"19":-0.1345212608575821,"20":0.08913694322109222,"21":0.0064100055024027824,"22":-0.09788577258586884,"23":0.06404092907905579,"24":0.004372448660433292,"25":0.08929074555635452,"26":-0.10682130604982376,"27":-0.03488045558333397,"28":0.14390841126441956,"29":0.10917001217603683,"30":0.0338003970682621,"31":-0.043611615896224976,"32":0.08296971023082733,"33":0.18729303777217865,"34":-0.15054799616336823,"35":-0.1613326370716095,"36":0.1842179149389267,"37":0.11704755574464798,"38":-0.08474551141262054,"39":0.17718693614006042}},"12":{"bias":-0.06566565483808517,"weights":{"0":0.21196232736110687,"1":0.16372254490852356,"2":0.08940449357032776,"3":-0.060140516608953476,"4":-0.08403575420379639,"5":0.182664155960083,"6":0.021103691309690475,"7":-0.046771954745054245,"8":0.11575105041265488,"9":-0.17321158945560455,"10":-0.1530507653951645,"11":0.0025205095298588276,"12":-0.04895763099193573,"13":-0.013050667941570282,"14":-0.11660735309123993,"15":-0.15120789408683777,"16":-0.006540270987898111,"17":-0.06558413803577423,"18":-0.14983326196670532,"19":-0.08768714964389801,"20":0.09745828062295914,"21":0.15152956545352936,"22":-0.10338684916496277,"23":-0.17939835786819458,"24":-0.10092777013778687,"25":-0.01889926753938198,"26":0.0020058320369571447,"27":0.03543158248066902,"28":-0.09888602793216705,"29":0.126531720161438,"30":0.08571980148553848,"31":0.2081843614578247,"32":-0.16595785319805145,"33":0.21076460182666779,"34":-0.0015816794475540519,"35":0.07622985541820526,"36":-0.04701220244169235,"37":-0.14892597496509552,"38":0.19525767862796783,"39":0.00603832770138979}},"13":{"bias":-0.06394624710083008,"weights":{"0":-0.09187227487564087,"1":0.026636406779289246,"2":0.06288890540599823,"3":0.10509859770536423,"4":0.03863274306058884,"5":0.13017112016677856,"6":0.1396399289369583,"7":0.19721630215644836,"8":0.11947832256555557,"9":-0.12911449372768402,"10":0.13284540176391602,"11":0.16340751945972443,"12":0.12267740815877914,"13":-0.10245479643344879,"14":0.2213241010904312,"15":0.1301499605178833,"16":-0.02404194325208664,"17":0.07693713903427124,"18":0.0624716617166996,"19":0.06823926419019699,"20":-0.08809422701597214,"21":0.13869056105613708,"22":0.12306636571884155,"23":0.17938882112503052,"24":0.21956273913383484,"25":-0.1298539638519287,"26":-0.04839741066098213,"27":-0.026508944109082222,"28":-0.06329134106636047,"29":0.10094791650772095,"30":0.07635080814361572,"31":-0.08980479836463928,"32":-0.10425608605146408,"33":-0.03822915256023407,"34":0.11027394980192184,"35":0.0914057120680809,"36":-0.07181203365325928,"37":-0.11779138445854187,"38":0.03443850204348564,"39":0.08800651133060455}},"14":{"bias":-0.0738106369972229,"weights":{"0":0.16592824459075928,"1":-0.17978794872760773,"2":-0.0735277459025383,"3":0.13577589392662048,"4":0.007924014702439308,"5":0.15155400335788727,"6":0.0005899250390939415,"7":0.21076974272727966,"8":-0.07675626128911972,"9":0.015812119469046593,"10":-0.09941789507865906,"11":-0.13489364087581635,"12":0.09972010552883148,"13":0.17936132848262787,"14":0.20890763401985168,"15":0.21413379907608032,"16":-0.11153756827116013,"17":-0.17515727877616882,"18":0.027576729655265808,"19":-0.11651143431663513,"20":-0.00924113392829895,"21":-0.054984960705041885,"22":0.09119564294815063,"23":-0.012876996770501137,"24":-0.18130816519260406,"25":0.005388936493545771,"26":0.03450998663902283,"27":0.146846204996109,"28":-0.030953994020819664,"29":-0.16161629557609558,"30":0.054980725049972534,"31":0.21023252606391907,"32":-0.08779096603393555,"33":0.1368786096572876,"34":0.14564301073551178,"35":-0.1333334594964981,"36":0.1992127001285553,"37":-0.11753977835178375,"38":-0.04906695336103439,"39":-0.16438913345336914}},"15":{"bias":-0.13115055859088898,"weights":{"0":-0.047957755625247955,"1":0.15793479979038239,"2":0.014194325543940067,"3":-0.1354193538427353,"4":0.16525384783744812,"5":0.06713157147169113,"6":0.16074344515800476,"7":0.07602988928556442,"8":-0.09312999993562698,"9":0.04593570902943611,"10":0.07761669158935547,"11":-0.11408758163452148,"12":0.17394274473190308,"13":-0.04268655925989151,"14":0.05669574812054634,"15":0.16522356867790222,"16":0.0397786870598793,"17":0.028381919488310814,"18":0.1582457423210144,"19":-0.09500452876091003,"20":0.010376336053013802,"21":0.13392044603824615,"22":0.10984938591718674,"23":0.2011953443288803,"24":-0.1356123685836792,"25":0.09113216400146484,"26":-0.19010694324970245,"27":0.041049256920814514,"28":-0.10569583624601364,"29":-0.1328447461128235,"30":0.09287092089653015,"31":-0.08258474618196487,"32":-0.1845092475414276,"33":-0.15224269032478333,"34":0.14663833379745483,"35":-0.16247157752513885,"36":-0.0696854367852211,"37":-0.1393548846244812,"38":-0.11406831443309784,"39":-0.07386533170938492}},"16":{"bias":-0.09385694563388824,"weights":{"0":-0.13770024478435516,"1":-0.09747417271137238,"2":-0.035789310932159424,"3":-0.10802961140871048,"4":-0.15638627111911774,"5":0.16499663889408112,"6":0.13183815777301788,"7":-0.18710173666477203,"8":-0.16237857937812805,"9":0.022091716527938843,"10":0.11629172414541245,"11":-0.06385886669158936,"12":-0.15101557970046997,"13":0.11069345474243164,"14":-0.18923506140708923,"15":0.06235400587320328,"16":-0.015412264503538609,"17":0.053401075303554535,"18":0.17515353858470917,"19":0.039397433400154114,"20":0.06714635342359543,"21":-0.027191391214728355,"22":-0.14009399712085724,"23":-0.060530491173267365,"24":-0.07488351315259933,"25":-0.10941945016384125,"26":-0.1786942332983017,"27":-0.15386129915714264,"28":0.14358706772327423,"29":0.1384154111146927,"30":-0.1073957085609436,"31":-0.0024575169663876295,"32":0.06604833155870438,"33":0.11570319533348083,"34":-0.16857077181339264,"35":0.18763099610805511,"36":0.1717224270105362,"37":-0.07687395811080933,"38":-0.1926501840353012,"39":-0.07339852303266525}},"17":{"bias":0.19549189507961273,"weights":{"0":0.10879258066415787,"1":0.03715338557958603,"2":-0.04578584432601929,"3":0.1358920931816101,"4":0.06715428084135056,"5":0.10216074436903,"6":0.11677909642457962,"7":0.15132023394107819,"8":0.20144204795360565,"9":0.10611912608146667,"10":-0.07396738231182098,"11":0.02665761485695839,"12":0.21962200105190277,"13":-0.029589597135782242,"14":-0.055199235677719116,"15":0.1664150506258011,"16":-0.15170957148075104,"17":-0.0911392793059349,"18":0.11038315296173096,"19":-0.06876274943351746,"20":-0.105203777551651,"21":-0.11325280368328094,"22":-0.058652959764003754,"23":0.031009122729301453,"24":0.17273132503032684,"25":0.06964237987995148,"26":-0.14502927660942078,"27":-0.06791409105062485,"28":0.1991092562675476,"29":0.09017190337181091,"30":0.029648523777723312,"31":0.02499568462371826,"32":0.08068676292896271,"33":0.19589863717556,"34":0.14054739475250244,"35":0.04892007261514664,"36":0.11941355466842651,"37":0.18104079365730286,"38":0.05108056589961052,"39":0.01659354940056801}},"18":{"bias":0.1474745124578476,"weights":{"0":0.009055687114596367,"1":0.02234160341322422,"2":-0.02808223105967045,"3":0.12832026183605194,"4":0.09480902552604675,"5":-0.1870017796754837,"6":-0.0731460377573967,"7":-0.04733721911907196,"8":-0.10438984632492065,"9":0.15100447833538055,"10":0.1403329223394394,"11":-0.18031463027000427,"12":-0.17309218645095825,"13":0.07846617698669434,"14":-0.10095206648111343,"15":-0.10997983068227768,"16":-0.06752286106348038,"17":-0.14864642918109894,"18":0.20669418573379517,"19":0.12825682759284973,"20":-0.11815443634986877,"21":-0.19188252091407776,"22":-0.08530016988515854,"23":0.1900925189256668,"24":0.17597204446792603,"25":0.14141790568828583,"26":-0.0796661302447319,"27":-0.18868833780288696,"28":0.03307048976421356,"29":-0.16591857373714447,"30":-0.17810744047164917,"31":0.007518441881984472,"32":-0.02792550064623356,"33":0.17517976462841034,"34":0.13253657519817352,"35":-0.012501479126513004,"36":-0.09638480097055435,"37":0.1057741716504097,"38":-0.10041353851556778,"39":0.0777452141046524}},"19":{"bias":0.01569979265332222,"weights":{"0":-0.039401825517416,"1":0.13820308446884155,"2":0.12128978967666626,"3":-0.06161455437541008,"4":0.23614618182182312,"5":0.11489105969667435,"6":-0.14632664620876312,"7":-0.15662887692451477,"8":0.14152482151985168,"9":0.1497105062007904,"10":-0.06483454257249832,"11":0.14108945429325104,"12":0.15146169066429138,"13":0.20022065937519073,"14":0.20062611997127533,"15":0.040411483496427536,"16":-0.04831179231405258,"17":-0.060998305678367615,"18":-0.08567690849304199,"19":0.10179241001605988,"20":0.12859569489955902,"21":0.07323361188173294,"22":0.2107437551021576,"23":-0.12590615451335907,"24":0.08198168128728867,"25":-0.039034027606248856,"26":0.12638795375823975,"27":0.1455206722021103,"28":-0.0434519462287426,"29":-0.0884920284152031,"30":0.17654874920845032,"31":0.06705103814601898,"32":0.22227774560451508,"33":-0.012811698950827122,"34":-0.12648296356201172,"35":0.0828409194946289,"36":0.17601396143436432,"37":-0.034542519599199295,"38":0.16574209928512573,"39":0.07877935469150543}}},{"0":{"bias":-0.01951024867594242,"weights":{"0":-0.10616566240787506,"1":-0.07519814372062683,"2":0.06711959093809128,"3":-0.08237911760807037,"4":0.05117436870932579,"5":0.09565046429634094,"6":0.15072068572044373,"7":0.20353221893310547,"8":-0.01045761164277792,"9":-0.04422899708151817,"10":0.09264642000198364,"11":0.0825805813074112,"12":-0.08831970393657684,"13":0.0933128148317337,"14":0.11610009521245956,"15":-0.012890330515801907,"16":0.17514008283615112,"17":0.19566664099693298,"18":0.11751553416252136,"19":0.2941468060016632}},"1":{"bias":0.3223283290863037,"weights":{"0":0.2433456927537918,"1":0.1578177511692047,"2":0.11354225873947144,"3":0.24483339488506317,"4":0.10446750372648239,"5":0.2744583785533905,"6":-0.06244875118136406,"7":-0.09330841153860092,"8":-0.04644959792494774,"9":0.06225056201219559,"10":-0.014900502748787403,"11":0.06690589338541031,"12":0.054147060960531235,"13":0.13403676450252533,"14":-0.026556221768260002,"15":0.024387333542108536,"16":0.08652805536985397,"17":0.17460249364376068,"18":-0.037473686039447784,"19":0.13353973627090454}},"2":{"bias":0.22387708723545074,"weights":{"0":-0.07386334240436554,"1":0.2455924153327942,"2":0.1574997752904892,"3":0.2088794857263565,"4":0.29436734318733215,"5":-0.08034870773553848,"6":-0.049994174391031265,"7":0.21987254917621613,"8":0.2288369983434677,"9":0.01928878389298916,"10":-0.023899409919977188,"11":0.04682152718305588,"12":0.20710746943950653,"13":0.06816442310810089,"14":0.15156343579292297,"15":-0.06306396424770355,"16":0.1394023597240448,"17":0.09187185019254684,"18":0.055449847131967545,"19":0.21933682262897491}},"3":{"bias":0.08622197806835175,"weights":{"0":0.2785918116569519,"1":0.07315804064273834,"2":0.007118494249880314,"3":0.11981826275587082,"4":0.07554269582033157,"5":0.03394400328397751,"6":0.0025306669995188713,"7":0.15904492139816284,"8":-0.01735733449459076,"9":0.2603939175605774,"10":0.15024375915527344,"11":0.10171192139387131,"12":-0.0026253899559378624,"13":0.3105402886867523,"14":0.23415839672088623,"15":-0.07896683365106583,"16":-0.013712417334318161,"17":0.02491653896868229,"18":-0.05692935734987259,"19":0.28256526589393616}},"4":{"bias":0.2535560727119446,"weights":{"0":0.028654994443058968,"1":-0.027451617643237114,"2":-0.009883539751172066,"3":0.13632571697235107,"4":0.12866638600826263,"5":-0.051846977323293686,"6":0.13777042925357819,"7":0.11865878850221634,"8":0.06822840869426727,"9":0.005881155841052532,"10":0.2533826529979706,"11":0.04999381676316261,"12":0.18532179296016693,"13":0.24220171570777893,"14":-0.07085355371236801,"15":0.05986827239394188,"16":0.14857792854309082,"17":0.30460166931152344,"18":0.21196940541267395,"19":-0.05366402491927147}},"5":{"bias":0.05259663239121437,"weights":{"0":0.03341027349233627,"1":-0.08645638078451157,"2":0.27302247285842896,"3":-0.029254935681819916,"4":0.06742925941944122,"5":0.12961560487747192,"6":0.22744536399841309,"7":0.015396835282444954,"8":0.2609637975692749,"9":-0.039722662419080734,"10":0.29442882537841797,"11":0.27138811349868774,"12":0.06964941322803497,"13":0.3274277150630951,"14":0.2229059636592865,"15":-0.0031404555775225163,"16":0.1195150762796402,"17":0.27822887897491455,"18":0.07436991482973099,"19":-0.03147980943322182}},"6":{"bias":0.3725667893886566,"weights":{"0":0.015101884491741657,"1":0.1545482724905014,"2":0.3144015967845917,"3":-0.025335706770420074,"4":0.24327442049980164,"5":0.18882039189338684,"6":-0.02167610079050064,"7":0.23408086597919464,"8":-0.08373477309942245,"9":-0.06949006766080856,"10":0.09554001688957214,"11":0.2795866131782532,"12":0.08250336349010468,"13":0.1381351798772812,"14":-0.09211550652980804,"15":0.11107134819030762,"16":0.062219131737947464,"17":0.09342417120933533,"18":-0.104305200278759,"19":0.2919999659061432}},"7":{"bias":0.19208142161369324,"weights":{"0":-0.09412003308534622,"1":-0.03350351005792618,"2":0.02662808820605278,"3":0.1910148411989212,"4":0.295317679643631,"5":0.20889027416706085,"6":0.20371492207050323,"7":0.23815657198429108,"8":0.10694684833288193,"9":0.09639644622802734,"10":0.041574876755476,"11":-0.04626327008008957,"12":0.20500394701957703,"13":0.26265034079551697,"14":0.07865803688764572,"15":-0.02283400483429432,"16":0.045044608414173126,"17":0.1256643831729889,"18":0.24341391026973724,"19":0.2857435345649719}},"8":{"bias":0.3584381639957428,"weights":{"0":-0.07572602480649948,"1":0.15222756564617157,"2":0.3122798800468445,"3":0.2430226057767868,"4":0.13999277353286743,"5":0.19300700724124908,"6":0.2746703028678894,"7":-0.08045941591262817,"8":0.03740366920828819,"9":0.030969444662332535,"10":-0.06240148842334747,"11":0.17876370251178741,"12":0.22694694995880127,"13":0.2820025086402893,"14":0.22100554406642914,"15":0.2556500732898712,"16":-0.11982718855142593,"17":0.31886154413223267,"18":0.010765913873910904,"19":0.2709788382053375}},"9":{"bias":-0.006852718070149422,"weights":{"0":-0.06643740087747574,"1":-0.10301367938518524,"2":0.23766738176345825,"3":-0.09198711812496185,"4":0.27674049139022827,"5":0.1580982655286789,"6":0.18993866443634033,"7":0.12274216115474701,"8":0.2259366512298584,"9":-0.026475142687559128,"10":0.09350292384624481,"11":-0.09119207412004471,"12":-0.06239630654454231,"13":0.052643612027168274,"14":-0.013227003626525402,"15":0.27043426036834717,"16":-0.10940422117710114,"17":-0.040792014449834824,"18":0.08457621186971664,"19":0.09007041156291962}},"10":{"bias":0.3019181489944458,"weights":{"0":-0.006700971629470587,"1":0.1927381306886673,"2":0.03319243714213371,"3":0.0800383985042572,"4":-0.05893908813595772,"5":0.26124709844589233,"6":-0.10462913662195206,"7":0.14629749953746796,"8":0.25699105858802795,"9":0.26757940649986267,"10":0.05537644773721695,"11":0.25183790922164917,"12":0.18040746450424194,"13":-0.036633946001529694,"14":0.030328668653964996,"15":0.17465423047542572,"16":0.1388934701681137,"17":0.04878373444080353,"18":-0.06154891103506088,"19":0.04475833475589752}},"11":{"bias":-0.021485598757863045,"weights":{"0":0.17803488671779633,"1":0.033832550048828125,"2":0.006032883655279875,"3":0.08747406303882599,"4":-0.057147301733493805,"5":-0.050195250660181046,"6":0.2240479439496994,"7":0.06523174792528152,"8":0.2596251964569092,"9":0.1488230973482132,"10":-0.02468966878950596,"11":0.03500238433480263,"12":0.1490686982870102,"13":0.235488623380661,"14":-0.018168240785598755,"15":0.010969914495944977,"16":0.05963920056819916,"17":0.15490616858005524,"18":0.14747580885887146,"19":0.2524607181549072}},"12":{"bias":0.09398496896028519,"weights":{"0":-0.02494211122393608,"1":-0.043569546192884445,"2":0.09122448414564133,"3":0.26762890815734863,"4":0.1590004414319992,"5":0.038097694516181946,"6":-0.06215415894985199,"7":0.22958232462406158,"8":0.14886368811130524,"9":0.030766423791646957,"10":0.10371428728103638,"11":0.1937517672777176,"12":0.03550136834383011,"13":0.0961143746972084,"14":0.07467057555913925,"15":0.25498166680336,"16":-0.016324900090694427,"17":0.2298324853181839,"18":0.17769233882427216,"19":0.18621014058589935}},"13":{"bias":0.21140655875205994,"weights":{"0":0.21217872202396393,"1":0.2570323646068573,"2":0.16996091604232788,"3":0.22000090777873993,"4":-0.011074351146817207,"5":0.041231852024793625,"6":0.16394153237342834,"7":0.03217729181051254,"8":-0.02992360293865204,"9":0.0013703578151762486,"10":0.18892447650432587,"11":0.28211554884910583,"12":-0.10022467374801636,"13":-0.01835128851234913,"14":0.1381237804889679,"15":-0.01622787117958069,"16":-0.09552022814750671,"17":0.2821880578994751,"18":0.15045948326587677,"19":0.3150523006916046}},"14":{"bias":0.09505826234817505,"weights":{"0":0.004330622032284737,"1":0.22568799555301666,"2":0.1629379242658615,"3":0.1722927838563919,"4":0.182201087474823,"5":0.19987885653972626,"6":0.14553223550319672,"7":0.05938873067498207,"8":-0.09321950376033783,"9":-0.05822232738137245,"10":0.20591694116592407,"11":0.02938605472445488,"12":-0.024676091969013214,"13":0.17043833434581757,"14":0.2581831216812134,"15":-0.035604413598775864,"16":0.06325658410787582,"17":-0.030666038393974304,"18":0.04162910580635071,"19":0.2774597406387329}}},{"0":{"bias":-0.46586376428604126,"weights":{"0":-0.28888973593711853,"1":-0.2926327586174011,"2":-0.3498145639896393,"3":-0.4446824789047241,"4":-0.28198522329330444,"5":-0.29719260334968567,"6":-0.2257869690656662,"7":-0.605408251285553,"8":-0.40404751896858215,"9":-0.5050179958343506,"10":-0.42203304171562195,"11":-0.4476951062679291,"12":-0.3743298649787903,"13":-0.24843274056911469,"14":-0.23275938630104065}},"1":{"bias":-0.6816184520721436,"weights":{"0":-0.22063195705413818,"1":-0.2807720899581909,"2":-0.3376612663269043,"3":-0.4905184209346771,"4":-0.46395841240882874,"5":-0.3786337375640869,"6":-0.40385088324546814,"7":-0.28068605065345764,"8":-0.4427034854888916,"9":-0.29037734866142273,"10":-0.2506616413593292,"11":-0.14859624207019806,"12":-0.2476498931646347,"13":-0.4361960291862488,"14":-0.42207837104797363}},"2":{"bias":-0.4712978005409241,"weights":{"0":-0.12656408548355103,"1":-0.1842944324016571,"2":-0.29466933012008667,"3":-0.4572250247001648,"4":-0.27673372626304626,"5":-0.4723002016544342,"6":-0.5913740992546082,"7":-0.2990364730358124,"8":-0.5795369148254395,"9":-0.3201292157173157,"10":-0.3579651415348053,"11":-0.44163015484809875,"12":-0.44962549209594727,"13":-0.2372787445783615,"14":-0.2664753198623657}},"3":{"bias":-0.5227181911468506,"weights":{"0":-0.2462349385023117,"1":-0.2585253119468689,"2":-0.5361547470092773,"3":-0.21131522953510284,"4":-0.2947879731655121,"5":-0.538373589515686,"6":-0.309739351272583,"7":-0.2613852620124817,"8":-0.34000149369239807,"9":-0.3780859410762787,"10":-0.22516758739948273,"11":-0.26221659779548645,"12":-0.37900230288505554,"13":-0.5681019425392151,"14":-0.475096195936203}},"4":{"bias":-0.47583743929862976,"weights":{"0":-0.21123914420604706,"1":-0.5783634185791016,"2":-0.30514761805534363,"3":-0.4193413257598877,"4":-0.3445291519165039,"5":-0.3892413079738617,"6":-0.2300562560558319,"7":-0.4687940776348114,"8":-0.4644067585468292,"9":-0.2825961410999298,"10":-0.2537931203842163,"11":-0.3990330994129181,"12":-0.2434527575969696,"13":-0.22305230796337128,"14":-0.5299636125564575}},"5":{"bias":-0.5911435484886169,"weights":{"0":-0.4067341387271881,"1":-0.22421494126319885,"2":-0.17881342768669128,"3":-0.44981077313423157,"4":-0.42787542939186096,"5":-0.33254727721214294,"6":-0.32540127635002136,"7":-0.4608348309993744,"8":-0.5326056480407715,"9":-0.29734504222869873,"10":-0.16335844993591309,"11":-0.4176703691482544,"12":-0.3516538441181183,"13":-0.48968496918678284,"14":-0.2097424864768982}},"6":{"bias":-0.6854845881462097,"weights":{"0":-0.3853588402271271,"1":-0.18877167999744415,"2":-0.39485451579093933,"3":-0.1795118749141693,"4":-0.22126656770706177,"5":-0.48910558223724365,"6":-0.507761538028717,"7":-0.473624050617218,"8":-0.5737185478210449,"9":-0.1054706946015358,"10":-0.38134080171585083,"11":-0.18256612122058868,"12":-0.43966567516326904,"13":-0.33126118779182434,"14":-0.16796597838401794}},"7":{"bias":-0.4757998287677765,"weights":{"0":-0.46783697605133057,"1":-0.4657922685146332,"2":-0.49292588233947754,"3":-0.41515442728996277,"4":-0.4993409514427185,"5":-0.3657503128051758,"6":-0.31149616837501526,"7":-0.4087934195995331,"8":-0.2910580337047577,"9":-0.16919293999671936,"10":-0.32924216985702515,"11":-0.4525408148765564,"12":-0.253898948431015,"13":-0.31673863530158997,"14":-0.2538307011127472}},"8":{"bias":-0.5732105374336243,"weights":{"0":-0.2921869158744812,"1":-0.4019821584224701,"2":-0.24473851919174194,"3":-0.45830607414245605,"4":-0.16863414645195007,"5":-0.2827436029911041,"6":-0.4977341592311859,"7":-0.4173038899898529,"8":-0.5522120594978333,"9":-0.4119909405708313,"10":-0.36913925409317017,"11":-0.18721731007099152,"12":-0.412059485912323,"13":-0.38241901993751526,"14":-0.20445241034030914}},"9":{"bias":-0.3107525706291199,"weights":{"0":-0.29248303174972534,"1":-0.4226909875869751,"2":-0.3839508295059204,"3":-0.09643031656742096,"4":-0.37462764978408813,"5":-0.5125213861465454,"6":-0.5084565281867981,"7":-0.24040673673152924,"8":-0.48616939783096313,"9":-0.16764941811561584,"10":-0.3689885139465332,"11":-0.3525477945804596,"12":-0.4633242189884186,"13":-0.5319252014160156,"14":-0.3897041380405426}}},{"0":{"bias":-1.8695443868637085,"weights":{"0":-0.3834535777568817,"1":-0.4341948926448822,"2":-0.4218899607658386,"3":-0.49251052737236023,"4":-0.5450108051300049,"5":-0.34070485830307007,"6":-0.4668857753276825,"7":-0.3296216130256653,"8":-0.47556355595588684,"9":-0.3440370559692383}},"1":{"bias":-2.798252582550049,"weights":{"0":-0.9332788586616516,"1":-1.0213572978973389,"2":-1.0992780923843384,"3":-1.0962398052215576,"4":-1.0605440139770508,"5":-0.7954925298690796,"6":-1.059888482093811,"7":-0.7704606652259827,"8":-0.689712405204773,"9":-0.8690483570098877}},"2":{"bias":-2.5164613723754883,"weights":{"0":-0.7597100734710693,"1":-0.8201615810394287,"2":-0.7955595254898071,"3":-0.9890719652175903,"4":-0.9898492097854614,"5":-0.4199855327606201,"6":-0.8174213767051697,"7":-0.4756920635700226,"8":-0.6426907777786255,"9":-0.5269131660461426}},"3":{"bias":-1.8059231042861938,"weights":{"0":-0.3416527807712555,"1":-0.35061225295066833,"2":-0.3395332098007202,"3":-0.39164432883262634,"4":-0.41383054852485657,"5":-0.29382309317588806,"6":-0.39713752269744873,"7":-0.3031516671180725,"8":-0.2960217595100403,"9":-0.33042168617248535}},"4":{"bias":-2.4922800064086914,"weights":{"0":-0.8012028336524963,"1":-0.9382151961326599,"2":-0.9175276756286621,"3":-1.0220947265625,"4":-0.9195734858512878,"5":-0.6402071118354797,"6":-0.9507323503494263,"7":-0.6880924105644226,"8":-0.7506064772605896,"9":-0.5174853205680847}},"5":{"bias":-2.487792491912842,"weights":{"0":-0.7494596838951111,"1":-0.8601977825164795,"2":-0.9420384764671326,"3":-0.8970891237258911,"4":-1.0671249628067017,"5":-0.5237905979156494,"6":-0.9599414467811584,"7":-0.5497058629989624,"8":-0.7367174029350281,"9":-0.6832361817359924}},"6":{"bias":-2.0619659423828125,"weights":{"0":-0.3636230528354645,"1":-0.40156280994415283,"2":-0.3875783681869507,"3":-0.49474090337753296,"4":-0.5291578769683838,"5":-0.3094218969345093,"6":-0.4509883522987366,"7":-0.2552802264690399,"8":-0.3480508029460907,"9":-0.32279664278030396}},"7":{"bias":-1.8443658351898193,"weights":{"0":-0.4564882218837738,"1":-0.5713807940483093,"2":-0.568324625492096,"3":-0.5436297059059143,"4":-0.5842168927192688,"5":-0.35230717062950134,"6":-0.5821632146835327,"7":-0.48218992352485657,"8":-0.4880737364292145,"9":-0.46478715538978577}},"8":{"bias":-3.192739963531494,"weights":{"0":-1.1739517450332642,"1":-1.069787859916687,"2":-1.0134949684143066,"3":-1.350730061531067,"4":-1.4156404733657837,"5":-0.7200027704238892,"6":-0.9340627193450928,"7":-0.7720717787742615,"8":-0.9508132934570312,"9":-0.7472774386405945}},"9":{"bias":-1.4578003883361816,"weights":{"0":-0.33737409114837646,"1":-0.3361252546310425,"2":-0.3546561300754547,"3":-0.39692699909210205,"4":-0.39712753891944885,"5":-0.3162490129470825,"6":-0.3904792368412018,"7":-0.2774135172367096,"8":-0.24345307052135468,"9":-0.28469395637512207}}}],"outputLookup":true,"inputLookup":false,"activation":"sigmoid","trainOpts":{"iterations":20000,"errorThresh":0.005,"log":false,"logPeriod":10,"learningRate":0.3,"momentum":0.1,"callbackPeriod":10,"beta1":0.9,"beta2":0.999,"epsilon":1e-8}}